<?xml version="1.0"?>
<opencv_storage>
<cascade>
  <stageType>BOOST</stageType>
  <featureType>LBP</featureType>
  <height>24</height>
  <width>24</width>
  <stageParams>
    <boostType>LB</boostType>
    <minHitRate>9.9500000476837158e-001</minHitRate>
    <maxFalseAlarm>5.0000000000000000e-001</maxFalseAlarm>
    <weightTrimRate>9.4999999999999996e-001</weightTrimRate>
    <maxDepth>1</maxDepth>
    <maxWeakCount>100</maxWeakCount></stageParams>
  <featureParams>
    <maxCatCount>256</maxCatCount>
    <featSize>1</featSize></featureParams>
  <stageNum>15</stageNum>
  <stages>
    <!-- stage 0 -->
    <_>
      <maxWeakCount>3</maxWeakCount>
      <stageThreshold>5.1675480604171753e-001</stageThreshold>
      <weakClassifiers>
        <_>
          <internalNodes>
            0 -1 27 1068498943 732901291 1073741823 36635563 1875630335
            1073741823 1073459199 36645775</internalNodes>
          <leafValues>
            -1.5294117927551270e+000 1.9122728109359741e+000</leafValues></_>
        <_>
          <internalNodes>
            0 -1 61 1471632895 1996861899 17389919 1576388763 1225329408
            445321451 168428035 258410507</internalNodes>
          <leafValues>
            -2.3732995986938477e+000 1.0661138296127319e+000</leafValues></_>
        <_>
          <internalNodes>
            0 -1 4 -1069484448 -536837982 1544831135 -1089861613
            -2147444432 -257490816 -1920366081 -70549365</internalNodes>
          <leafValues>
            -1.4502617120742798e+000 9.8005270957946777e-001</leafValues></_></weakClassifiers></_>
    <!-- stage 1 -->
    <_>
      <maxWeakCount>3</maxWeakCount>
      <stageThreshold>5.8766829967498779e-001</stageThreshold>
      <weakClassifiers>
        <_>
          <internalNodes>
            0 -1 47 -540241976 -540217460 -1282356 -540217664 -11731060
            -1245204 -45814648 -49484280</internalNodes>
          <leafValues>
            -8.5882353782653809e-001 1.8870503902435303e+000</leafValues></_>
        <_>
          <internalNodes>
            0 -1 55 -800796672 -1006595964 -2146319847 -115359713
            1073848320 -1870659456 -1073501777 -7615845</internalNodes>
          <leafValues>
            -2.2819418907165527e+000 1.0331475734710693e+000</leafValues></_>
        <_>
          <internalNodes>
            0 -1 21 -1040127488 -191970812 -1877458672 -148680574
            -268402540 -351109120 -938880561 -5521397</internalNodes>
          <leafValues>
            -1.3135411739349365e+000 9.8255974054336548e-001</leafValues></_></weakClassifiers></_>
    <!-- stage 2 -->
    <_>
      <maxWeakCount>4</maxWeakCount>
      <stageThreshold>-3.5825532674789429e-001</stageThreshold>
      <weakClassifiers>
        <_>
          <internalNodes>
            0 -1 35 -21829 -21845 2013145770 -1561646422 -16469 -20545
            -134249942 -1413537270</internalNodes>
          <leafValues>
            -6.6857963800430298e-001 1.8793119192123413e+000</leafValues></_>
        <_>
          <internalNodes>
            0 -1 66 1960704031 1428410689 286261457 286114197 1992890890
            957958165 270336259 1065319455</internalNodes>
          <leafValues>
            -1.8300328254699707e+000 9.7880238294601440e-001</leafValues></_>
        <_>
          <internalNodes>
            0 -1 40 -1848389153 428463235 -1862152063 564234393
            -2130652983 -1182564336 -1743665012 590066315</internalNodes>
          <leafValues>
            -1.4861668348312378e+000 9.1233372688293457e-001</leafValues></_>
        <_>
          <internalNodes>
            0 -1 70 -1063269248 -938937278 32960 1083228247 1619837056
            -2071871360 -2130452256 -616580389</internalNodes>
          <leafValues>
            -1.5403524637222290e+000 8.1768876314163208e-001</leafValues></_></weakClassifiers></_>
    <!-- stage 3 -->
    <_>
      <maxWeakCount>4</maxWeakCount>
      <stageThreshold>-6.1905461549758911e-001</stageThreshold>
      <weakClassifiers>
        <_>
          <internalNodes>
            0 -1 19 267386879 252620331 1862229999 187633167 1342177279
            1342177263 1996488703 254771199</internalNodes>
          <leafValues>
            -8.9184063673019409e-001 1.8513262271881104e+000</leafValues></_>
        <_>
          <internalNodes>
            0 -1 63 2013614591 1937113379 281690889 1884307473
            1346388424 -1207385468 591104 1162691887</internalNodes>
          <leafValues>
            -2.3607192039489746e+000 9.4894194602966309e-001</leafValues></_>
        <_>
          <internalNodes>
            0 -1 41 -1688217633 831639569 -1878998975 823758849
            -197017126 -1677668336 -1878137457 571182987</internalNodes>
          <leafValues>
            -1.4793282747268677e+000 9.2349880933761597e-001</leafValues></_>
        <_>
          <internalNodes>
            0 -1 50 -228610032 -1274459620 50402388 -698646513
            -2013199292 17106945 -1459519408 -3425369</internalNodes>
          <leafValues>
            -1.6935696601867676e+000 8.0317234992980957e-001</leafValues></_></weakClassifiers></_>
    <!-- stage 4 -->
    <_>
      <maxWeakCount>4</maxWeakCount>
      <stageThreshold>5.7792049646377563e-001</stageThreshold>
      <weakClassifiers>
        <_>
          <internalNodes>
            0 -1 14 805306367 795831991 805293679 168755759 2147483647
            1610612735 1610579967 134153807</internalNodes>
          <leafValues>
            -9.0827739238739014e-001 1.8326433897018433e+000</leafValues></_>
        <_>
          <internalNodes>
            0 -1 68 1073970399 1749225091 1627445537 940934295 12795951
            713051865 458763 23527543</internalNodes>
          <leafValues>
            -2.9225075244903564e+000 9.0559124946594238e-001</leafValues></_>
        <_>
          <internalNodes>
            0 -1 11 -1505056094 -2036012938 -230388182 -1908223986
            -325086253 -460156773 -1349919817 -74348129</internalNodes>
          <leafValues>
            -1.2844552993774414e+000 9.3654704093933105e-001</leafValues></_>
        <_>
          <internalNodes>
            0 -1 20 -94176000 -162376767 -1031343840 -234028767
            -196827328 -754745039 -801079165 -10006334</internalNodes>
          <leafValues>
            -2.0381176471710205e+000 7.3123770952224731e-001</leafValues></_></weakClassifiers></_>
    <!-- stage 5 -->
    <_>
      <maxWeakCount>5</maxWeakCount>
      <stageThreshold>7.9742521047592163e-002</stageThreshold>
      <weakClassifiers>
        <_>
          <internalNodes>
            0 -1 18 267386623 187166371 190838782 84738595 2013265919
            -1478492177 2013265919 189792191</internalNodes>
          <leafValues>
            -1.9933554530143738e-001 1.8324700593948364e+000</leafValues></_>
        <_>
          <internalNodes>
            0 -1 45 -783951630 1396790416 1610711050 -468483934
            -1794901342 536945664 1346748960 1074036736</internalNodes>
          <leafValues>
            -1.7794502973556519e+000 9.3416142463684082e-001</leafValues></_>
        <_>
          <internalNodes>
            0 -1 74 -1061095424 -795594344 109283328 -786586878
            -796205431 -1920286589 -1065236278 -22351670</internalNodes>
          <leafValues>
            -1.3552269935607910e+000 8.8483482599258423e-001</leafValues></_>
        <_>
          <internalNodes>
            0 -1 58 1751257600 -775618287 1224772 -15924977 1221173264
            -452786045 -1870292864 -57683297</internalNodes>
          <leafValues>
            -1.6172730922698975e+000 7.2576439380645752e-001</leafValues></_>
        <_>
          <internalNodes>
            0 -1 33 1901977311 496079112 -654016303 89231889 -1467973496
            1042579520 549490826 462355584</internalNodes>
          <leafValues>
            -1.5506376028060913e+000 6.5618532896041870e-001</leafValues></_></weakClassifiers></_>
    <!-- stage 6 -->
    <_>
      <maxWeakCount>5</maxWeakCount>
      <stageThreshold>2.6052829623222351e-001</stageThreshold>
      <weakClassifiers>
        <_>
          <internalNodes>
            0 -1 73 1073774720 1347477065 -1770717209 536215551
            1073791104 -787167492 1614925006 -45758993</internalNodes>
          <leafValues>
            -1.1072664707899094e-001 1.8235608339309692e+000</leafValues></_>
        <_>
          <internalNodes>
            0 -1 44 1419239426 1096007746 -1070561120 -788036928
            1359004674 1073838208 1074463266 -221273438</internalNodes>
          <leafValues>
            -1.6167138814926147e+000 9.2772185802459717e-001</leafValues></_>
        <_>
          <internalNodes>
            0 -1 32 1343226133 21004353 1900563 12582923 33055
            -1879048059 75497497 622338088</internalNodes>
          <leafValues>
            -2.4480335712432861e+000 7.4280387163162231e-001</leafValues></_>
        <_>
          <internalNodes>
            0 -1 79 -818954238 -992837376 1179697423 -593784821
            538976256 432128 671220258 -359924849</internalNodes>
          <leafValues>
            -1.2875934839248657e+000 8.3878344297409058e-001</leafValues></_>
        <_>
          <internalNodes>
            0 -1 13 -813522814 -1061010942 16793858 136478720 310954139
            1241931780 536921011 -616365229</internalNodes>
          <leafValues>
            -1.5279060602188110e+000 6.6205006837844849e-001</leafValues></_></weakClassifiers></_>
    <!-- stage 7 -->
    <_>
      <maxWeakCount>6</maxWeakCount>
      <stageThreshold>2.6237982511520386e-001</stageThreshold>
      <weakClassifiers>
        <_>
          <internalNodes>
            0 -1 37 2138034062 -1079001171 -7590772 -653783544 -1048950
            -5280085 -271938040 -301953536</internalNodes>
          <leafValues>
            -2.4460431933403015e-001 1.8263963460922241e+000</leafValues></_>
        <_>
          <internalNodes>
            0 -1 5 67111938 252256733 67596 -975863216 265029915
            955269272 -1866424228 -459226976</internalNodes>
          <leafValues>
            -2.0315790176391602e+000 8.8061988353729248e-001</leafValues></_>
        <_>
          <internalNodes>
            0 -1 10 -1975859766 -1568537966 323768386 -1302292976
            1655046599 41219 1778830470 -73990117</internalNodes>
          <leafValues>
            -1.2186830043792725e+000 8.3672916889190674e-001</leafValues></_>
        <_>
          <internalNodes>
            0 -1 49 -113005942 -800817078 268435592 -750682080
            -2147319670 -1056407166 16941198 -140522869</internalNodes>
          <leafValues>
            -1.6447993516921997e+000 7.0423263311386108e-001</leafValues></_>
        <_>
          <internalNodes>
            0 -1 71 -925903616 1153487006 1889128964 -537362302
            -510807484 10723859 -2146909512 -70939953</internalNodes>
          <leafValues>
            -1.8440835475921631e+000 5.9985691308975220e-001</leafValues></_>
        <_>
          <internalNodes>
            0 -1 24 -125635898 -649984832 1086365708 -612089856
            -2144814608 -259882848 1107329408 -200196032</internalNodes>
          <leafValues>
            -1.4261922836303711e+000 6.7577588558197021e-001</leafValues></_></weakClassifiers></_>
    <!-- stage 8 -->
    <_>
      <maxWeakCount>6</maxWeakCount>
      <stageThreshold>6.6525387763977051e-001</stageThreshold>
      <weakClassifiers>
        <_>
          <internalNodes>
            0 -1 31 397361035 237445930 1073708991 51314977 1073704959
            -35330 2071953399 254738706</internalNodes>
          <leafValues>
            -8.5106384754180908e-001 1.7919777631759644e+000</leafValues></_>
        <_>
          <internalNodes>
            0 -1 52 -1136561664 -997023403 -1173973756 -897347569
            -1073127424 -1803505664 -2136686336 -376452385</internalNodes>
          <leafValues>
            -1.5125283002853394e+000 8.9880889654159546e-001</leafValues></_>
        <_>
          <internalNodes>
            0 -1 43 1426583738 -805183394 408507904 1883750986
            -1064585870 1090568321 -1072052190 -506994526</internalNodes>
          <leafValues>
            -1.1295903921127319e+000 8.5182976722717285e-001</leafValues></_>
        <_>
          <internalNodes>
            0 -1 22 1107686018 142775428 -1660926456 1871368457
            -1199493116 1147520513 1501568267 1332734283</internalNodes>
          <leafValues>
            -1.6179728507995605e+000 6.6665172576904297e-001</leafValues></_>
        <_>
          <internalNodes>
            0 -1 67 2031350512 1879572485 452991488 1109917953
            -215748456 -1198899040 -1467302776 -2004223669</internalNodes>
          <leafValues>
            -1.1416411399841309e+000 7.3413759469985962e-001</leafValues></_>
        <_>
          <internalNodes>
            0 -1 36 -574320320 494928140 -939208127 427932948
            -1006594944 -1685797880 -2147441396 747581961</internalNodes>
          <leafValues>
            -1.8668146133422852e+000 5.2713054418563843e-001</leafValues></_></weakClassifiers></_>
    <!-- stage 9 -->
    <_>
      <maxWeakCount>6</maxWeakCount>
      <stageThreshold>-4.3041744828224182e-001</stageThreshold>
      <weakClassifiers>
        <_>
          <internalNodes>
            0 -1 51 1131365639 1423933295 1311723087 1207958894
            1465341188 2121783159 67372036 1146081101</internalNodes>
          <leafValues>
            2.2492401301860809e-001 1.8176269531250000e+000</leafValues></_>
        <_>
          <internalNodes>
            0 -1 78 -2136550336 -1060833120 1350738128 1152959177
            -365264224 -2013167478 -528438134 -368408437</internalNodes>
          <leafValues>
            -1.6466710567474365e+000 8.5408675670623779e-001</leafValues></_>
        <_>
          <internalNodes>
            0 -1 23 584231538 -1597882048 1362122112 -826238702
            -2147317501 -2146789367 -981064729 -1147090041</internalNodes>
          <leafValues>
            -1.5039790868759155e+000 7.6636868715286255e-001</leafValues></_>
        <_>
          <internalNodes>
            0 -1 53 -60623166 -795847894 -1610585568 1079247872
            -1840742333 -2013101944 818063778 -991755260</internalNodes>
          <leafValues>
            -1.6040378808975220e+000 6.7890310287475586e-001</leafValues></_>
        <_>
          <internalNodes>
            0 -1 6 -243936769 1888168582 140288 4350498 402837547
            872515591 -2044166010 -790371738</internalNodes>
          <leafValues>
            -1.1941187381744385e+000 7.6866090297698975e-001</leafValues></_>
        <_>
          <internalNodes>
            0 -1 76 -560496556 -644278270 34554106 -561282813
            -1852090288 1428684849 -1598449656 -1113998821</internalNodes>
          <leafValues>
            -1.2226029634475708e+000 6.4852041006088257e-001</leafValues></_></weakClassifiers></_>
    <!-- stage 10 -->
    <_>
      <maxWeakCount>7</maxWeakCount>
      <stageThreshold>-2.8360491991043091e-001</stageThreshold>
      <weakClassifiers>
        <_>
          <internalNodes>
            0 -1 59 572531200 908099428 -320536588 -1093601932 -773868
            -133124 -42664476 -1158398096</internalNodes>
          <leafValues>
            -3.5502958297729492e-001 1.7902635335922241e+000</leafValues></_>
        <_>
          <internalNodes>
            0 -1 28 1342231552 -628194742 838860948 -715718527
            1074807120 -2013199741 201 -744783853</internalNodes>
          <leafValues>
            -1.7658618688583374e+000 8.5205978155136108e-001</leafValues></_>
        <_>
          <internalNodes>
            0 -1 12 -502800945 1107478146 1090541634 2048 -1048452949
            -1466269560 -939406837 1095039559</internalNodes>
          <leafValues>
            -1.3114249706268311e+000 7.9493653774261475e-001</leafValues></_>
        <_>
          <internalNodes>
            0 -1 62 -251154432 33653024 -1047719919 2099452961
            -502226144 -1726873472 939753473 -1087394641</internalNodes>
          <leafValues>
            -9.7044861316680908e-001 7.9869818687438965e-001</leafValues></_>
        <_>
          <internalNodes>
            0 -1 42 37822475 -1659850728 538452017 -717217257 1610664577
            -805273592 562056584 -1065301812</internalNodes>
          <leafValues>
            -2.0140047073364258e+000 4.9970161914825439e-001</leafValues></_>
        <_>
          <internalNodes>
            0 -1 9 -832844113 -2075516532 152125953 1319895383
            1132946315 1073922059 555914159 1204789963</internalNodes>
          <leafValues>
            -1.2874398231506348e+000 6.7286688089370728e-001</leafValues></_>
        <_>
          <internalNodes>
            0 -1 56 -1743517168 -2013134646 -1006538731 11768327
            805966336 42008960 92342835 169804623</internalNodes>
          <leafValues>
            -1.4549540281295776e+000 5.5102831125259399e-001</leafValues></_></weakClassifiers></_>
    <!-- stage 11 -->
    <_>
      <maxWeakCount>8</maxWeakCount>
      <stageThreshold>-1.0340746492147446e-001</stageThreshold>
      <weakClassifiers>
        <_>
          <internalNodes>
            0 -1 77 1073791168 1073761536 -9183262 269615099 -728654128
            -2059 1992556351 -11272194</internalNodes>
          <leafValues>
            6.1349693685770035e-002 1.8009017705917358e+000</leafValues></_>
        <_>
          <internalNodes>
            0 -1 3 -989820442 160039621 4 5832740 -2139070021 10502514
            -1610593764 1333790441</internalNodes>
          <leafValues>
            -2.0864214897155762e+000 8.2134681940078735e-001</leafValues></_>
        <_>
          <internalNodes>
            0 -1 64 1899088223 1485021862 37806137 1375979729 2053534468
            -92168152 791812 1415051819</internalNodes>
          <leafValues>
            -1.3224538564682007e+000 7.8488379716873169e-001</leafValues></_>
        <_>
          <internalNodes>
            0 -1 17 -1807323042 -784056240 679494146 -16498688
            -2147385177 -897496957 538255522 -15514542</internalNodes>
          <leafValues>
            -1.0710210800170898e+000 8.0100005865097046e-001</leafValues></_>
        <_>
          <internalNodes>
            0 -1 54 -993859422 1621443628 1648493056 -1064158459
            -762982193 -2147450875 -457129631 -962638230</internalNodes>
          <leafValues>
            -1.5308140516281128e+000 5.7053267955780029e-001</leafValues></_>
        <_>
          <internalNodes>
            0 -1 80 1628913669 1314084185 1761814038 -263745465
            -2013197308 1140985856 -2133835700 -558109781</internalNodes>
          <leafValues>
            -1.1060239076614380e+000 7.0501452684402466e-001</leafValues></_>
        <_>
          <internalNodes>
            0 -1 38 -805298008 -189657023 -2146397707 -5389748
            -1744805752 -1440743264 285246088 151060496</internalNodes>
          <leafValues>
            -1.4652841091156006e+000 5.3102618455886841e-001</leafValues></_>
        <_>
          <internalNodes>
            0 -1 29 1116914250 -762083838 1616007308 -402503679
            -2109061038 1151991842 272286855 -615267794</internalNodes>
          <leafValues>
            -1.2432438135147095e+000 5.9700381755828857e-001</leafValues></_></weakClassifiers></_>
    <!-- stage 12 -->
    <_>
      <maxWeakCount>7</maxWeakCount>
      <stageThreshold>3.2612644135951996e-002</stageThreshold>
      <weakClassifiers>
        <_>
          <internalNodes>
            0 -1 30 201327104 -1362329674 -1106984972 -1091248204
            805130180 -1077002244 -541839756 -1344000144</internalNodes>
          <leafValues>
            -3.6997318267822266e-001 1.7973221540451050e+000</leafValues></_>
        <_>
          <internalNodes>
            0 -1 69 2078100159 1912602657 -1308573064 -939462520
            35717327 1912620162 573588143 1537738635</internalNodes>
          <leafValues>
            -1.2384225130081177e+000 8.6628669500350952e-001</leafValues></_>
        <_>
          <internalNodes>
            0 -1 34 -716910208 -108543858 151126018 -922681328
            1091879088 -355958782 -1207204726 -1148580862</internalNodes>
          <leafValues>
            -1.4875541925430298e+000 7.2557377815246582e-001</leafValues></_>
        <_>
          <internalNodes>
            0 -1 1 1713368207 -858474019 -469631148 -469167808 264341923
            2146307 574656612 -443813665</internalNodes>
          <leafValues>
            -1.0200291872024536e+000 7.4383991956710815e-001</leafValues></_>
        <_>
          <internalNodes>
            0 -1 81 1209520320 -2143268856 -1073708988 -1932334452
            856940928 1610776595 -1241464700 -767128949</internalNodes>
          <leafValues>
            -1.7783747911453247e+000 5.0216192007064819e-001</leafValues></_>
        <_>
          <internalNodes>
            0 -1 60 1088770607 -2145943483 270127275 -1320558450
            -1070517338 8602092 -2057875200 -983347200</internalNodes>
          <leafValues>
            -1.1073516607284546e+000 6.5875577926635742e-001</leafValues></_>
        <_>
          <internalNodes>
            0 -1 0 -2121274097 -1599963004 1641257239 -2021490430
            181132047 71485442 17416707 1187489275</internalNodes>
          <leafValues>
            -9.8932296037673950e-001 7.1231502294540405e-001</leafValues></_></weakClassifiers></_>
    <!-- stage 13 -->
    <_>
      <maxWeakCount>8</maxWeakCount>
      <stageThreshold>2.4307113885879517e-001</stageThreshold>
      <weakClassifiers>
        <_>
          <internalNodes>
            0 -1 57 536870912 45891412 1658879812 1022902012 502543684
            -1099579403 1007981636 1014775284</internalNodes>
          <leafValues>
            -5.7391303777694702e-001 1.7745894193649292e+000</leafValues></_>
        <_>
          <internalNodes>
            0 -1 26 201905351 262165 538202129 36189697 805372417
            -1073741628 444858532 118186811</internalNodes>
          <leafValues>
            -3.1125719547271729e+000 7.7734124660491943e-001</leafValues></_>
        <_>
          <internalNodes>
            0 -1 7 1364194227 -1337269202 17502562 2277376 1744865635
            1614227729 -2141551870 -262669502</internalNodes>
          <leafValues>
            -9.5352214574813843e-001 8.4525996446609497e-001</leafValues></_>
        <_>
          <internalNodes>
            0 -1 72 -52486144 1027672135 -838463160 1504478279
            -2004916220 1948270659 -1331008752 -129513162</internalNodes>
          <leafValues>
            -1.5640827417373657e+000 6.7988705635070801e-001</leafValues></_>
        <_>
          <internalNodes>
            0 -1 8 -914175990 1078481222 -2130115325 1275969665
            -318252736 49410 -1605723889 1330372651</internalNodes>
          <leafValues>
            -1.6118552684783936e+000 6.0668742656707764e-001</leafValues></_>
        <_>
          <internalNodes>
            0 -1 48 273764739 1347665923 276918760 -247432892 2212171
            -2138898393 -1044324160 -239016508</internalNodes>
          <leafValues>
            -1.4141077995300293e+000 6.2448185682296753e-001</leafValues></_>
        <_>
          <internalNodes>
            0 -1 82 -507002880 1074184546 -1056947196 96911508
            1094729744 65539 1078011850 -1515197437</internalNodes>
          <leafValues>
            -1.1122342348098755e+000 6.3366484642028809e-001</leafValues></_>
        <_>
          <internalNodes>
            0 -1 25 1141657836 209747982 66011 692392008 -1673459712
            1077954560 -920146357 1326445107</internalNodes>
          <leafValues>
            -1.3446894884109497e+000 5.6245398521423340e-001</leafValues></_></weakClassifiers></_>
    <!-- stage 14 -->
    <_>
      <maxWeakCount>7</maxWeakCount>
      <stageThreshold>-3.0858239531517029e-001</stageThreshold>
      <weakClassifiers>
        <_>
          <internalNodes>
            0 -1 39 1610653696 1959064676 1338375952 -587202570
            -713591488 -143130633 -526491 -1</internalNodes>
          <leafValues>
            -5.9420287609100342e-001 1.7844498157501221e+000</leafValues></_>
        <_>
          <internalNodes>
            0 -1 46 16851332 1360142476 1343776 1679859916 1140978816
            -801882077 8422280 -142163576</internalNodes>
          <leafValues>
            -1.6046433448791504e+000 8.3828008174896240e-001</leafValues></_>
        <_>
          <internalNodes>
            0 -1 2 -878197401 132228 1225065306 -2131881311 170361167
            73873418 1163112963 78088347</internalNodes>
          <leafValues>
            -1.0833412408828735e+000 7.8942197561264038e-001</leafValues></_>
        <_>
          <internalNodes>
            0 -1 65 1145622906 1074053459 -1852833791 302907913
            1073763472 -732134631 1096909184 -78581237</internalNodes>
          <leafValues>
            -1.3807903528213501e+000 6.4753687381744385e-001</leafValues></_>
        <_>
          <internalNodes>
            0 -1 15 -1065180574 -1071246168 134882560 -528351232
            285427520 -463241046 -1304428224 -1297514480</internalNodes>
          <leafValues>
            -2.4514818191528320e+000 4.2761540412902832e-001</leafValues></_>
        <_>
          <internalNodes>
            0 -1 75 -1643129776 1481314322 -1575875851 278118434
            537034756 1623197697 -1473672360 -1182095157</internalNodes>
          <leafValues>
            -1.2791188955307007e+000 6.1341875791549683e-001</leafValues></_>
        <_>
          <internalNodes>
            0 -1 16 -939001241 -653016060 939558418 -800964598
            -1064304384 1612614144 -1719255040 -802831277</internalNodes>
          <leafValues>
            -1.0023254156112671e+000 6.9337564706802368e-001</leafValues></_></weakClassifiers></_></stages>
  <features>
    <_>
      <rect>
        0 0 2 4</rect></_>
    <_>
      <rect>
        0 0 4 2</rect></_>
    <_>
      <rect>
        0 2 3 2</rect></_>
    <_>
      <rect>
        0 5 4 3</rect></_>
    <_>
      <rect>
        0 8 6 4</rect></_>
    <_>
      <rect>
        0 8 8 2</rect></_>
    <_>
      <rect>
        0 12 3 3</rect></_>
    <_>
      <rect>
        0 13 3 2</rect></_>
    <_>
      <rect>
        0 17 8 2</rect></_>
    <_>
      <rect>
        1 1 3 2</rect></_>
    <_>
      <rect>
        1 1 4 3</rect></_>
    <_>
      <rect>
        1 2 5 2</rect></_>
    <_>
      <rect>
        1 2 5 6</rect></_>
    <_>
      <rect>
        1 5 3 2</rect></_>
    <_>
      <rect>
        1 5 5 3</rect></_>
    <_>
      <rect>
        1 11 3 2</rect></_>
    <_>
      <rect>
        1 14 3 3</rect></_>
    <_>
      <rect>
        1 14 4 1</rect></_>
    <_>
      <rect>
        2 2 4 5</rect></_>
    <_>
      <rect>
        2 4 4 4</rect></_>
    <_>
      <rect>
        2 8 3 4</rect></_>
    <_>
      <rect>
        2 9 3 3</rect></_>
    <_>
      <rect>
        2 18 7 2</rect></_>
    <_>
      <rect>
        3 0 3 3</rect></_>
    <_>
      <rect>
        3 13 3 1</rect></_>
    <_>
      <rect>
        3 15 6 1</rect></_>
    <_>
      <rect>
        4 1 3 5</rect></_>
    <_>
      <rect>
        4 3 3 4</rect></_>
    <_>
      <rect>
        4 6 2 6</rect></_>
    <_>
      <rect>
        4 18 3 2</rect></_>
    <_>
      <rect>
        5 0 4 3</rect></_>
    <_>
      <rect>
        5 2 2 5</rect></_>
    <_>
      <rect>
        5 5 5 3</rect></_>
    <_>
      <rect>
        5 7 3 2</rect></_>
    <_>
      <rect>
        5 8 2 4</rect></_>
    <_>
      <rect>
        6 3 4 4</rect></_>
    <_>
      <rect>
        6 5 2 3</rect></_>
    <_>
      <rect>
        6 5 4 2</rect></_>
    <_>
      <rect>
        6 7 1 1</rect></_>
    <_>
      <rect>
        6 9 6 3</rect></_>
    <_>
      <rect>
        7 4 2 4</rect></_>
    <_>
      <rect>
        7 5 2 3</rect></_>
    <_>
      <rect>
        7 8 4 2</rect></_>
    <_>
      <rect>
        8 0 3 7</rect></_>
    <_>
      <rect>
        8 1 3 6</rect></_>
    <_>
      <rect>
        8 2 3 6</rect></_>
    <_>
      <rect>
        8 3 3 3</rect></_>
    <_>
      <rect>
        8 4 3 2</rect></_>
    <_>
      <rect>
        8 5 3 2</rect></_>
    <_>
      <rect>
        8 8 3 1</rect></_>
    <_>
      <rect>
        9 1 5 3</rect></_>
    <_>
      <rect>
        9 1 5 6</rect></_>
    <_>
      <rect>
        9 2 5 2</rect></_>
    <_>
      <rect>
        9 6 2 4</rect></_>
    <_>
      <rect>
        9 7 2 3</rect></_>
    <_>
      <rect>
        9 8 5 4</rect></_>
    <_>
      <rect>
        9 15 2 3</rect></_>
    <_>
      <rect>
        10 0 3 3</rect></_>
    <_>
      <rect>
        10 0 4 3</rect></_>
    <_>
      <rect>
        10 1 3 3</rect></_>
    <_>
      <rect>
        10 5 2 2</rect></_>
    <_>
      <rect>
        10 5 4 3</rect></_>
    <_>
      <rect>
        10 18 4 2</rect></_>
    <_>
      <rect>
        11 2 3 5</rect></_>
    <_>
      <rect>
        11 3 4 5</rect></_>
    <_>
      <rect>
        11 5 3 6</rect></_>
    <_>
      <rect>
        11 5 4 3</rect></_>
    <_>
      <rect>
        11 14 4 1</rect></_>
    <_>
      <rect>
        12 4 2 4</rect></_>
    <_>
      <rect>
        12 6 2 3</rect></_>
    <_>
      <rect>
        12 6 4 6</rect></_>
    <_>
      <rect>
        12 10 4 2</rect></_>
    <_>
      <rect>
        13 0 3 2</rect></_>
    <_>
      <rect>
        13 6 2 5</rect></_>
    <_>
      <rect>
        13 9 3 3</rect></_>
    <_>
      <rect>
        14 0 3 3</rect></_>
    <_>
      <rect>
        14 1 3 3</rect></_>
    <_>
      <rect>
        14 7 2 5</rect></_>
    <_>
      <rect>
        14 8 3 4</rect></_>
    <_>
      <rect>
        15 0 3 7</rect></_>
    <_>
      <rect>
        15 2 3 3</rect></_>
    <_>
      <rect>
        15 9 3 4</rect></_>
    <_>
      <rect>
        18 6 2 4</rect></_></features></cascade>
</opencv_storage>
