<?xml version="1.0"?>
<opencv_storage>
<stage11>
  <maxWeakCount>8</maxWeakCount>
  <stageThreshold>-1.0340746492147446e-001</stageThreshold>
  <weakClassifiers>
    <_>
      <internalNodes>
        0 -1 7234 1073791168 1073761536 -9183262 269615099 -728654128
        -2059 1992556351 -11272194</internalNodes>
      <leafValues>
        6.1349693685770035e-002 1.8009017705917358e+000</leafValues></_>
    <_>
      <internalNodes>
        0 -1 300 -989820442 160039621 4 5832740 -2139070021 10502514
        -1610593764 1333790441</internalNodes>
      <leafValues>
        -2.0864214897155762e+000 8.2134681940078735e-001</leafValues></_>
    <_>
      <internalNodes>
        0 -1 6185 1899088223 1485021862 37806137 1375979729 2053534468
        -92168152 791812 1415051819</internalNodes>
      <leafValues>
        -1.3224538564682007e+000 7.8488379716873169e-001</leafValues></_>
    <_>
      <internalNodes>
        0 -1 1284 -1807323042 -784056240 679494146 -16498688 -2147385177
        -897496957 538255522 -15514542</internalNodes>
      <leafValues>
        -1.0710210800170898e+000 8.0100005865097046e-001</leafValues></_>
    <_>
      <internalNodes>
        0 -1 5486 -993859422 1621443628 1648493056 -1064158459
        -762982193 -2147450875 -457129631 -962638230</internalNodes>
      <leafValues>
        -1.5308140516281128e+000 5.7053267955780029e-001</leafValues></_>
    <_>
      <internalNodes>
        0 -1 7421 1628913669 1314084185 1761814038 -263745465
        -2013197308 1140985856 -2133835700 -558109781</internalNodes>
      <leafValues>
        -1.1060239076614380e+000 7.0501452684402466e-001</leafValues></_>
    <_>
      <internalNodes>
        0 -1 4054 -805298008 -189657023 -2146397707 -5389748 -1744805752
        -1440743264 285246088 151060496</internalNodes>
      <leafValues>
        -1.4652841091156006e+000 5.3102618455886841e-001</leafValues></_>
    <_>
      <internalNodes>
        0 -1 3195 1116914250 -762083838 1616007308 -402503679
        -2109061038 1151991842 272286855 -615267794</internalNodes>
      <leafValues>
        -1.2432438135147095e+000 5.9700381755828857e-001</leafValues></_></weakClassifiers></stage11>
</opencv_storage>
