<?xml version="1.0"?>
<opencv_storage>
<stage8>
  <maxWeakCount>6</maxWeakCount>
  <stageThreshold>6.6525387763977051e-001</stageThreshold>
  <weakClassifiers>
    <_>
      <internalNodes>
        0 -1 3321 397361035 237445930 1073708991 51314977 1073704959
        -35330 2071953399 254738706</internalNodes>
      <leafValues>
        -8.5106384754180908e-001 1.7919777631759644e+000</leafValues></_>
    <_>
      <internalNodes>
        0 -1 5348 -1136561664 -997023403 -1173973756 -897347569
        -1073127424 -1803505664 -2136686336 -376452385</internalNodes>
      <leafValues>
        -1.5125283002853394e+000 8.9880889654159546e-001</leafValues></_>
    <_>
      <internalNodes>
        0 -1 4806 1426583738 -805183394 408507904 1883750986 -1064585870
        1090568321 -1072052190 -506994526</internalNodes>
      <leafValues>
        -1.1295903921127319e+000 8.5182976722717285e-001</leafValues></_>
    <_>
      <internalNodes>
        0 -1 2002 1107686018 142775428 -1660926456 1871368457
        -1199493116 1147520513 1501568267 1332734283</internalNodes>
      <leafValues>
        -1.6179728507995605e+000 6.6665172576904297e-001</leafValues></_>
    <_>
      <internalNodes>
        0 -1 6389 2031350512 1879572485 452991488 1109917953 -215748456
        -1198899040 -1467302776 -2004223669</internalNodes>
      <leafValues>
        -1.1416411399841309e+000 7.3413759469985962e-001</leafValues></_>
    <_>
      <internalNodes>
        0 -1 3990 -574320320 494928140 -939208127 427932948 -1006594944
        -1685797880 -2147441396 747581961</internalNodes>
      <leafValues>
        -1.8668146133422852e+000 5.2713054418563843e-001</leafValues></_></weakClassifiers></stage8>
</opencv_storage>
