<?xml version="1.0"?>
<opencv_storage>
<stage9>
  <maxWeakCount>82</maxWeakCount>
  <stageThreshold>-1.6954673826694489e-001</stageThreshold>
  <weakClassifiers>
    <_>
      <internalNodes>
        0 -1 0 2.7411902323365211e-002</internalNodes>
      <leafValues>
        7.1670347452163696e-001 9.0861046314239502e-001</leafValues></_>
    <_>
      <internalNodes>
        0 -1 1 3.1808737665414810e-002</internalNodes>
      <leafValues>
        2.2627939283847809e-001 6.1977332830429077e-001</leafValues></_>
    <_>
      <internalNodes>
        0 -1 224 9.6088126301765442e-003</internalNodes>
      <leafValues>
        3.5914745926856995e-001 -1.3513872027397156e-001</leafValues></_>
    <_>
      <internalNodes>
        0 -1 316 4.5581191778182983e-002</internalNodes>
      <leafValues>
        -1.4593948423862457e-001 3.9030313491821289e-001</leafValues></_>
    <_>
      <internalNodes>
        0 -1 232 3.3341150730848312e-002</internalNodes>
      <leafValues>
        -2.8662168979644775e-001 1.6501206159591675e-001</leafValues></_>
    <_>
      <internalNodes>
        0 -1 44 3.4141946583986282e-002</internalNodes>
      <leafValues>
        -2.0504435896873474e-001 2.1735052764415741e-001</leafValues></_>
    <_>
      <internalNodes>
        0 -1 139 3.6227256059646606e-002</internalNodes>
      <leafValues>
        -1.5965017676353455e-001 2.1622520685195923e-001</leafValues></_>
    <_>
      <internalNodes>
        0 -1 94 1.6041208058595657e-002</internalNodes>
      <leafValues>
        2.0146614313125610e-001 -1.7831483483314514e-001</leafValues></_>
    <_>
      <internalNodes>
        0 -1 96 4.9436450004577637e-002</internalNodes>
      <leafValues>
        -1.0379011929035187e-001 3.4502822160720825e-001</leafValues></_>
    <_>
      <internalNodes>
        0 -1 309 2.6350878179073334e-002</internalNodes>
      <leafValues>
        -1.9239686429500580e-001 1.7349050939083099e-001</leafValues></_>
    <_>
      <internalNodes>
        0 -1 243 1.3758471235632896e-002</internalNodes>
      <leafValues>
        -3.8381624221801758e-001 8.5313916206359863e-002</leafValues></_>
    <_>
      <internalNodes>
        0 -1 5 1.6921427100896835e-002</internalNodes>
      <leafValues>
        1.1575876921415329e-001 -2.4744848906993866e-001</leafValues></_>
    <_>
      <internalNodes>
        0 -1 148 3.1275458633899689e-002</internalNodes>
      <leafValues>
        -1.9248300790786743e-001 1.6353806853294373e-001</leafValues></_>
    <_>
      <internalNodes>
        0 -1 229 4.6101912856101990e-002</internalNodes>
      <leafValues>
        6.9009922444820404e-002 -4.2751640081405640e-001</leafValues></_>
    <_>
      <internalNodes>
        0 -1 156 2.4524224922060966e-002</internalNodes>
      <leafValues>
        -2.5321367383003235e-001 1.1757328361272812e-001</leafValues></_>
    <_>
      <internalNodes>
        0 -1 231 3.0105583369731903e-002</internalNodes>
      <leafValues>
        -1.7565557360649109e-001 1.6721145808696747e-001</leafValues></_>
    <_>
      <internalNodes>
        0 -1 33 1.7121035605669022e-002</internalNodes>
      <leafValues>
        -3.1473109126091003e-001 9.4526469707489014e-002</leafValues></_>
    <_>
      <internalNodes>
        0 -1 315 2.2375814616680145e-002</internalNodes>
      <leafValues>
        -2.5350001454353333e-001 1.1431632190942764e-001</leafValues></_>
    <_>
      <internalNodes>
        0 -1 181 2.0460613071918488e-002</internalNodes>
      <leafValues>
        -2.2834685444831848e-001 1.2155803292989731e-001</leafValues></_>
    <_>
      <internalNodes>
        0 -1 56 2.0617675036191940e-002</internalNodes>
      <leafValues>
        1.3082453608512878e-001 -2.4117794632911682e-001</leafValues></_>
    <_>
      <internalNodes>
        0 -1 149 3.0804444104433060e-002</internalNodes>
      <leafValues>
        -1.3303220272064209e-001 2.3900169134140015e-001</leafValues></_>
    <_>
      <internalNodes>
        0 -1 35 3.5408198833465576e-002</internalNodes>
      <leafValues>
        -1.4875873923301697e-001 2.1634446084499359e-001</leafValues></_>
    <_>
      <internalNodes>
        0 -1 36 4.0038995444774628e-002</internalNodes>
      <leafValues>
        -1.2448602914810181e-001 2.6050615310668945e-001</leafValues></_>
    <_>
      <internalNodes>
        0 -1 103 1.1525791138410568e-002</internalNodes>
      <leafValues>
        -5.4510891437530518e-001 5.9956993907690048e-002</leafValues></_>
    <_>
      <internalNodes>
        0 -1 223 1.8569380044937134e-002</internalNodes>
      <leafValues>
        1.3077755272388458e-001 -2.2780485451221466e-001</leafValues></_>
    <_>
      <internalNodes>
        0 -1 234 1.7277844250202179e-002</internalNodes>
      <leafValues>
        -3.6008980870246887e-001 8.9814558625221252e-002</leafValues></_>
    <_>
      <internalNodes>
        0 -1 96 1.6254164278507233e-002</internalNodes>
      <leafValues>
        -2.8268334269523621e-001 9.7574129700660706e-002</leafValues></_>
    <_>
      <internalNodes>
        0 -1 183 2.8714023530483246e-002</internalNodes>
      <leafValues>
        -1.6442190110683441e-001 1.7140389978885651e-001</leafValues></_>
    <_>
      <internalNodes>
        0 -1 34 2.5536986067891121e-002</internalNodes>
      <leafValues>
        -2.0197133719921112e-001 1.3596011698246002e-001</leafValues></_>
    <_>
      <internalNodes>
        0 -1 283 2.0640343427658081e-002</internalNodes>
      <leafValues>
        1.4260518550872803e-001 -1.8400126695632935e-001</leafValues></_>
    <_>
      <internalNodes>
        0 -1 101 8.2814861088991165e-003</internalNodes>
      <leafValues>
        -5.0655561685562134e-001 4.8561118543148041e-002</leafValues></_>
    <_>
      <internalNodes>
        0 -1 172 6.5968565642833710e-002</internalNodes>
      <leafValues>
        3.0738653615117073e-002 -6.8961757421493530e-001</leafValues></_>
    <_>
      <internalNodes>
        0 -1 4 1.5586497262120247e-002</internalNodes>
      <leafValues>
        1.6234716773033142e-001 -1.5103913843631744e-001</leafValues></_>
    <_>
      <internalNodes>
        0 -1 184 1.2870077043771744e-002</internalNodes>
      <leafValues>
        -3.7290248274803162e-001 6.2614761292934418e-002</leafValues></_>
    <_>
      <internalNodes>
        0 -1 316 2.1919839084148407e-002</internalNodes>
      <leafValues>
        -2.1172349154949188e-001 1.1285474896430969e-001</leafValues></_>
    <_>
      <internalNodes>
        0 -1 117 1.8066523596644402e-002</internalNodes>
      <leafValues>
        1.2725535035133362e-001 -1.7931096255779266e-001</leafValues></_>
    <_>
      <internalNodes>
        0 -1 269 3.3704243600368500e-002</internalNodes>
      <leafValues>
        -1.4634756743907928e-001 1.6639892756938934e-001</leafValues></_>
    <_>
      <internalNodes>
        0 -1 321 1.4828814193606377e-002</internalNodes>
      <leafValues>
        1.5078429877758026e-001 -1.4304207265377045e-001</leafValues></_>
    <_>
      <internalNodes>
        0 -1 155 1.0753521695733070e-002</internalNodes>
      <leafValues>
        -4.2018741369247437e-001 5.6610591709613800e-002</leafValues></_>
    <_>
      <internalNodes>
        0 -1 97 1.9653989002108574e-002</internalNodes>
      <leafValues>
        -2.3361934721469879e-001 9.4651758670806885e-002</leafValues></_>
    <_>
      <internalNodes>
        0 -1 194 2.4107025936245918e-002</internalNodes>
      <leafValues>
        -1.8636798858642578e-001 1.3301452994346619e-001</leafValues></_>
    <_>
      <internalNodes>
        0 -1 227 1.5615219250321388e-002</internalNodes>
      <leafValues>
        1.2436104565858841e-001 -1.7855815589427948e-001</leafValues></_>
    <_>
      <internalNodes>
        0 -1 263 1.1718116700649261e-002</internalNodes>
      <leafValues>
        -2.2545726597309113e-001 9.0043939650058746e-002</leafValues></_>
    <_>
      <internalNodes>
        0 -1 57 3.1890291720628738e-002</internalNodes>
      <leafValues>
        6.3900835812091827e-002 -3.4075504541397095e-001</leafValues></_>
    <_>
      <internalNodes>
        0 -1 128 2.7086785063147545e-002</internalNodes>
      <leafValues>
        -1.5586124360561371e-001 1.4303047955036163e-001</leafValues></_>
    <_>
      <internalNodes>
        0 -1 25 2.6493823155760765e-002</internalNodes>
      <leafValues>
        -1.4863397181034088e-001 1.3530419766902924e-001</leafValues></_>
    <_>
      <internalNodes>
        0 -1 281 4.6076722443103790e-002</internalNodes>
      <leafValues>
        3.8137637078762054e-002 -5.2078592777252197e-001</leafValues></_>
    <_>
      <internalNodes>
        0 -1 28 3.5171546041965485e-002</internalNodes>
      <leafValues>
        -1.0138292610645294e-001 1.9321881234645844e-001</leafValues></_>
    <_>
      <internalNodes>
        0 -1 259 8.8202524930238724e-003</internalNodes>
      <leafValues>
        -3.5456073284149170e-001 5.6683801114559174e-002</leafValues></_>
    <_>
      <internalNodes>
        0 -1 10 1.4090321958065033e-002</internalNodes>
      <leafValues>
        1.6711759567260742e-001 -1.1212384700775146e-001</leafValues></_>
    <_>
      <internalNodes>
        0 -1 201 5.9653334319591522e-003</internalNodes>
      <leafValues>
        -3.7620127201080322e-001 5.0038050860166550e-002</leafValues></_>
    <_>
      <internalNodes>
        0 -1 0 1.7529774457216263e-002</internalNodes>
      <leafValues>
        -2.7081862092018127e-001 7.2381362318992615e-002</leafValues></_>
    <_>
      <internalNodes>
        0 -1 207 5.1073329523205757e-003</internalNodes>
      <leafValues>
        -6.6598993539810181e-001 2.5261668488383293e-002</leafValues></_>
    <_>
      <internalNodes>
        0 -1 192 1.2283472344279289e-002</internalNodes>
      <leafValues>
        -3.4688633680343628e-001 5.4478920996189117e-002</leafValues></_>
    <_>
      <internalNodes>
        0 -1 104 1.0303646326065063e-002</internalNodes>
      <leafValues>
        -4.0230640769004822e-001 4.5812103897333145e-002</leafValues></_>
    <_>
      <internalNodes>
        0 -1 284 1.4339058659970760e-002</internalNodes>
      <leafValues>
        1.6958837211132050e-001 -1.1416261643171310e-001</leafValues></_>
    <_>
      <internalNodes>
        0 -1 17 3.1677309423685074e-002</internalNodes>
      <leafValues>
        5.4698430001735687e-002 -3.4570440649986267e-001</leafValues></_>
    <_>
      <internalNodes>
        0 -1 53 2.3623086512088776e-002</internalNodes>
      <leafValues>
        -1.4341133832931519e-001 1.6285216808319092e-001</leafValues></_>
    <_>
      <internalNodes>
        0 -1 6 1.2580774724483490e-002</internalNodes>
      <leafValues>
        1.4067415893077850e-001 -1.1943063139915466e-001</leafValues></_>
    <_>
      <internalNodes>
        0 -1 41 4.8008747398853302e-003</internalNodes>
      <leafValues>
        -3.9676350355148315e-001 4.9443975090980530e-002</leafValues></_>
    <_>
      <internalNodes>
        0 -1 231 5.5058427155017853e-002</internalNodes>
      <leafValues>
        -6.4528837800025940e-002 2.9533728957176208e-001</leafValues></_>
    <_>
      <internalNodes>
        0 -1 223 7.2010820731520653e-003</internalNodes>
      <leafValues>
        2.4554651975631714e-001 -7.0830367505550385e-002</leafValues></_>
    <_>
      <internalNodes>
        0 -1 232 5.8761024847626686e-003</internalNodes>
      <leafValues>
        -5.8080506324768066e-001 3.5018697381019592e-002</leafValues></_>
    <_>
      <internalNodes>
        0 -1 258 1.9840281456708908e-002</internalNodes>
      <leafValues>
        -1.7918126285076141e-001 1.0332862287759781e-001</leafValues></_>
    <_>
      <internalNodes>
        0 -1 308 3.4340947866439819e-002</internalNodes>
      <leafValues>
        -7.1239337325096130e-002 2.3485109210014343e-001</leafValues></_>
    <_>
      <internalNodes>
        0 -1 200 2.8055779635906219e-002</internalNodes>
      <leafValues>
        7.3570072650909424e-002 -2.8516691923141479e-001</leafValues></_>
    <_>
      <internalNodes>
        0 -1 154 9.8653268069028854e-003</internalNodes>
      <leafValues>
        -3.1578189134597778e-001 5.6824520230293274e-002</leafValues></_>
    <_>
      <internalNodes>
        0 -1 273 3.5024709999561310e-002</internalNodes>
      <leafValues>
        -1.0062813013792038e-001 1.9546017050743103e-001</leafValues></_>
    <_>
      <internalNodes>
        0 -1 165 2.7472050860524178e-002</internalNodes>
      <leafValues>
        1.1355639249086380e-001 -2.0272332429885864e-001</leafValues></_>
    <_>
      <internalNodes>
        0 -1 5 3.1323067843914032e-002</internalNodes>
      <leafValues>
        4.4898033142089844e-002 -3.6605319380760193e-001</leafValues></_>
    <_>
      <internalNodes>
        0 -1 78 2.3308038711547852e-002</internalNodes>
      <leafValues>
        -1.2245543301105499e-001 1.5124326944351196e-001</leafValues></_>
    <_>
      <internalNodes>
        0 -1 27 4.1487969458103180e-002</internalNodes>
      <leafValues>
        -7.5029499828815460e-002 2.3184111714363098e-001</leafValues></_>
    <_>
      <internalNodes>
        0 -1 136 5.3177900612354279e-002</internalNodes>
      <leafValues>
        4.1506610810756683e-002 -4.6690377593040466e-001</leafValues></_>
    <_>
      <internalNodes>
        0 -1 16 3.0951267108321190e-002</internalNodes>
      <leafValues>
        5.3894784301519394e-002 -2.9732263088226318e-001</leafValues></_>
    <_>
      <internalNodes>
        0 -1 187 2.3763094097375870e-002</internalNodes>
      <leafValues>
        1.3190095126628876e-001 -1.1840817332267761e-001</leafValues></_>
    <_>
      <internalNodes>
        0 -1 52 2.9140532016754150e-002</internalNodes>
      <leafValues>
        -8.6467169225215912e-002 2.0671810209751129e-001</leafValues></_>
    <_>
      <internalNodes>
        0 -1 97 4.1957143694162369e-002</internalNodes>
      <leafValues>
        -7.5379997491836548e-002 2.1005369722843170e-001</leafValues></_>
    <_>
      <internalNodes>
        0 -1 147 2.4181962013244629e-002</internalNodes>
      <leafValues>
        -1.6548264026641846e-001 9.1562330722808838e-002</leafValues></_>
    <_>
      <internalNodes>
        0 -1 228 2.1145660430192947e-002</internalNodes>
      <leafValues>
        1.0500907897949219e-001 -1.6288219392299652e-001</leafValues></_>
    <_>
      <internalNodes>
        0 -1 156 4.2213842272758484e-002</internalNodes>
      <leafValues>
        -9.3668535351753235e-002 2.3297341167926788e-001</leafValues></_>
    <_>
      <internalNodes>
        0 -1 237 7.9264521598815918e-002</internalNodes>
      <leafValues>
        2.8551328927278519e-002 -6.6558074951171875e-001</leafValues></_>
    <_>
      <internalNodes>
        0 -1 275 1.7903123050928116e-002</internalNodes>
      <leafValues>
        -2.1252501010894775e-001 8.1264249980449677e-002</leafValues></_></weakClassifiers></stage9>
</opencv_storage>
