<?xml version="1.0"?>
<opencv_storage>
<stage8>
  <maxWeakCount>9</maxWeakCount>
  <stageThreshold>2.1146549284458160e-001</stageThreshold>
  <weakClassifiers>
    <_>
      <internalNodes>
        0 -1 3836 -2010379060 -1095958788 -1627603468 -50544644
        1593153532 -17010945 -587440164 -50581764</internalNodes>
      <leafValues>
        -2.9850745573639870e-002 9.0696024894714355e-001</leafValues></_>
    <_>
      <internalNodes>
        0 -1 7499 -126892988 1147536820 1809237076 -840962589 -705481341
        -2024409257 -195561577 -2621441</internalNodes>
      <leafValues>
        -2.5693556666374207e-001 7.3637413978576660e-001</leafValues></_>
    <_>
      <internalNodes>
        0 -1 4972 -2097153 -545275921 -268567601 -577915122 -8193
        -7340065 -24904050 -135266354</internalNodes>
      <leafValues>
        -3.7546294927597046e-001 6.8094736337661743e-001</leafValues></_>
    <_>
      <internalNodes>
        0 -1 575 -67119521 -707790179 35717186 -797294464 -139974
        -705770413 -1864698751 -680542081</internalNodes>
      <leafValues>
        -4.5302945375442505e-001 6.0153859853744507e-001</leafValues></_>
    <_>
      <internalNodes>
        0 -1 2138 -2026192989 -519902446 -1079575245 -1283429886
        791662395 -1102872798 1336541047 -3417893</internalNodes>
      <leafValues>
        -4.1922345757484436e-001 6.0340315103530884e-001</leafValues></_>
    <_>
      <internalNodes>
        0 -1 6321 -77073522 1104962442 1212317704 -335276381 -255819776
        -1462742143 1660980748 -12082230</internalNodes>
      <leafValues>
        -4.5535725355148315e-001 5.2812683582305908e-001</leafValues></_>
    <_>
      <internalNodes>
        0 -1 6059 -794959872 134267136 1699254545 2098817040 -1072967295
        -1593212916 1367705088 -1618220501</internalNodes>
      <leafValues>
        -5.2663606405258179e-001 4.5391836762428284e-001</leafValues></_>
    <_>
      <internalNodes>
        0 -1 7461 -783479777 -383396607 33636493 -515779323 -1599370748
        33935585 684754438 -1508905681</internalNodes>
      <leafValues>
        -5.4746598005294800e-001 4.1246727108955383e-001</leafValues></_>
    <_>
      <internalNodes>
        0 -1 3993 1359040916 1359003920 -1600039869 -1182285693
        289980587 -803109245 229379 -607411509</internalNodes>
      <leafValues>
        -6.1636137962341309e-001 3.9812827110290527e-001</leafValues></_></weakClassifiers></stage8>
</opencv_storage>
