<?xml version="1.0"?>
<opencv_storage>
<stage14>
  <maxWeakCount>38</maxWeakCount>
  <stageThreshold>-5.0042426586151123e-001</stageThreshold>
  <weakClassifiers>
    <_>
      <internalNodes>
        0 -1 5509 170426368 144744968 0 131072 801112064 9652492 262656
        0</internalNodes>
      <leafValues>
        -2.6661591529846191e+000 2.6661591529846191e+000</leafValues></_>
    <_>
      <internalNodes>
        0 -1 3887 -17409 -1 -1029 -21761 -1 -1 -17477 -21830</internalNodes>
      <leafValues>
        -6.7231321334838867e-001 6.7231321334838867e-001</leafValues></_>
    <_>
      <internalNodes>
        0 -1 952 -2 -269549570 -1 -268500994 -1 -1 -1 -1</internalNodes>
      <leafValues>
        -6.9244045019149780e-001 6.9244045019149780e-001</leafValues></_>
    <_>
      <internalNodes>
        0 -1 8029 -32940 2147483647 -1 2130706431 2147450709 2147483519
        -139 2004877183</internalNodes>
      <leafValues>
        -6.2097859382629395e-001 6.2097859382629395e-001</leafValues></_>
    <_>
      <internalNodes>
        0 -1 7233 -196610 -1 -1 -1 -1 -1 -1 -1</internalNodes>
      <leafValues>
        -5.6476551294326782e-001 5.6476551294326782e-001</leafValues></_>
    <_>
      <internalNodes>
        0 -1 5917 -82 -1 -18 -1 -1 -1 -1 -1</internalNodes>
      <leafValues>
        -5.2904194593429565e-001 5.2904194593429565e-001</leafValues></_>
    <_>
      <internalNodes>
        0 -1 5534 -268439894 -1073741825 -4178 -1 -1 -1 -1 -1</internalNodes>
      <leafValues>
        -5.5217313766479492e-001 5.5217313766479492e-001</leafValues></_>
    <_>
      <internalNodes>
        0 -1 3230 -1359020036 -285278209 -1 -65538 -1 -1 -1 -196609</internalNodes>
      <leafValues>
        -5.9491300582885742e-001 5.9491300582885742e-001</leafValues></_>
    <_>
      <internalNodes>
        0 -1 2601 -18 -285212690 -17 -286261265 -138 2147483647 -185
        1330642767</internalNodes>
      <leafValues>
        -5.7048350572586060e-001 5.7048350572586060e-001</leafValues></_>
    <_>
      <internalNodes>
        0 -1 1851 -2 -1 -2 -1 -1 -1 -1 -1</internalNodes>
      <leafValues>
        -5.2797257900238037e-001 5.2797257900238037e-001</leafValues></_>
    <_>
      <internalNodes>
        0 -1 7362 1031017552 -196611 -4 -65538 -229516 -2 -196612
        2147254268</internalNodes>
      <leafValues>
        -5.6432479619979858e-001 5.6432479619979858e-001</leafValues></_>
    <_>
      <internalNodes>
        0 -1 4239 -1 -1 -1 -1 -1 -1 -2 1610571775</internalNodes>
      <leafValues>
        -4.9745091795921326e-001 4.9745091795921326e-001</leafValues></_>
    <_>
      <internalNodes>
        0 -1 747 -1364279382 -1364262914 -1 -268500993 2147483519
        1879048191 2147483511 134217727</internalNodes>
      <leafValues>
        -4.8560687899589539e-001 4.8560687899589539e-001</leafValues></_>
    <_>
      <internalNodes>
        0 -1 6658 -2 -1 -1 -1 -1 2147483647 -1 2013265919</internalNodes>
      <leafValues>
        -4.5670858025550842e-001 4.5670858025550842e-001</leafValues></_>
    <_>
      <internalNodes>
        0 -1 5526 -188 1560281087 -1 -1 -137 -1 -1 -1</internalNodes>
      <leafValues>
        -5.2884960174560547e-001 5.2884960174560547e-001</leafValues></_>
    <_>
      <internalNodes>
        0 -1 6572 -1 -1 -1 -1 -2 -1 2147450719 1610612735</internalNodes>
      <leafValues>
        -4.1780260205268860e-001 4.1780260205268860e-001</leafValues></_>
    <_>
      <internalNodes>
        0 -1 3541 1567904768 -196610 -1 -1 1601470324 2113798143
        2147483647 1577058303</internalNodes>
      <leafValues>
        -5.1469761133193970e-001 5.1469761133193970e-001</leafValues></_>
    <_>
      <internalNodes>
        0 -1 1352 -16777490 -1 -16777217 -16777217 -129 -1 -1 -134217729</internalNodes>
      <leafValues>
        -4.7260475158691406e-001 4.7260475158691406e-001</leafValues></_>
    <_>
      <internalNodes>
        0 -1 6714 -2 -1 -2 -1 -4 -16777217 -2 1962737662</internalNodes>
      <leafValues>
        -4.4194725155830383e-001 4.4194725155830383e-001</leafValues></_>
    <_>
      <internalNodes>
        0 -1 2202 -1 -1 -1 805306367 -1 -1 -1 2147483647</internalNodes>
      <leafValues>
        -4.7662875056266785e-001 4.7662875056266785e-001</leafValues></_>
    <_>
      <internalNodes>
        0 -1 7369 -129 -1 -1 -1 -137 -1 -1 -1</internalNodes>
      <leafValues>
        -3.9546304941177368e-001 3.9546304941177368e-001</leafValues></_>
    <_>
      <internalNodes>
        0 -1 4544 -1292829024 1962934269 586841632 553090932 -1 -1 -129
        2013233151</internalNodes>
      <leafValues>
        -5.1182091236114502e-001 5.1182091236114502e-001</leafValues></_>
    <_>
      <internalNodes>
        0 -1 5964 -18 -1 -1 -1 2147450751 2147483647 -1 -1</internalNodes>
      <leafValues>
        -4.3114224076271057e-001 4.3114224076271057e-001</leafValues></_>
    <_>
      <internalNodes>
        0 -1 7506 -4 -16777217 -1 -16777217 -2 -1 -2 788529151</internalNodes>
      <leafValues>
        -3.8345929980278015e-001 3.8345929980278015e-001</leafValues></_>
    <_>
      <internalNodes>
        0 -1 5686 -224 -1368391762 -2 -268435457 -139 2139095039 -203
        1073741695</internalNodes>
      <leafValues>
        -4.4465079903602600e-001 4.4465079903602600e-001</leafValues></_>
    <_>
      <internalNodes>
        0 -1 1112 -285278226 -1 -1 -1 -137 -1 -1 -1</internalNodes>
      <leafValues>
        -4.4505220651626587e-001 4.4505220651626587e-001</leafValues></_>
    <_>
      <internalNodes>
        0 -1 2496 -2 -2 -2 -65538 -1 -1 -1 -134742025</internalNodes>
      <leafValues>
        -4.0906178951263428e-001 4.0906178951263428e-001</leafValues></_>
    <_>
      <internalNodes>
        0 -1 24 -268439826 -285212673 -2 -285212673 2147450743
        1207959551 2013263735 1476395007</internalNodes>
      <leafValues>
        -4.8916292190551758e-001 4.8916292190551758e-001</leafValues></_>
    <_>
      <internalNodes>
        0 -1 6420 2147287036 -1 -1 -1 -1 -1 -1 1073692671</internalNodes>
      <leafValues>
        -4.4564309716224670e-001 4.4564309716224670e-001</leafValues></_>
    <_>
      <internalNodes>
        0 -1 1955 -2 -285212673 -1 -268435457 -9 2147483647 -129
        2013265919</internalNodes>
      <leafValues>
        -3.9141228795051575e-001 3.9141228795051575e-001</leafValues></_>
    <_>
      <internalNodes>
        0 -1 2413 -18 -1 -18 -1 -1 -1 -1 2147483647</internalNodes>
      <leafValues>
        4.7204282879829407e-001 -4.7204282879829407e-001</leafValues></_>
    <_>
      <internalNodes>
        0 -1 2631 -2 -1 -1 -1 -1 -1 -1 2147483647</internalNodes>
      <leafValues>
        -3.7890750169754028e-001 3.7890750169754028e-001</leafValues></_>
    <_>
      <internalNodes>
        0 -1 6941 4205800 1560150015 -1 -1 1416691700 -131073 -134217732
        -1</internalNodes>
      <leafValues>
        -5.0504630804061890e-001 5.0504630804061890e-001</leafValues></_>
    <_>
      <internalNodes>
        0 -1 1973 -2 -16777217 -2 -1 -9 -1 -1 2147483647</internalNodes>
      <leafValues>
        -4.2733269929885864e-001 4.2733269929885864e-001</leafValues></_>
    <_>
      <internalNodes>
        0 -1 3812 -210 -268435457 -2 -1 -137 2147483647 -1 2147483647</internalNodes>
      <leafValues>
        -4.4288092851638794e-001 4.4288092851638794e-001</leafValues></_>
    <_>
      <internalNodes>
        0 -1 5055 -4177 -1 -1 -1 -1 -1 -1 -1</internalNodes>
      <leafValues>
        -3.7096127867698669e-001 3.7096127867698669e-001</leafValues></_>
    <_>
      <internalNodes>
        0 -1 6834 -9404560 -65537 -1 -65537 -11 -1 -3 -753676</internalNodes>
      <leafValues>
        -4.9220493435859680e-001 4.9220493435859680e-001</leafValues></_>
    <_>
      <internalNodes>
        0 -1 6214 -16386 -1 -1 -1 -1 -1 -1 1073692670</internalNodes>
      <leafValues>
        4.2271840572357178e-001 -4.2271840572357178e-001</leafValues></_></weakClassifiers></stage14>
</opencv_storage>
