<?xml version="1.0"?>
<opencv_storage>
<stage10>
  <maxWeakCount>25</maxWeakCount>
  <stageThreshold>-6.6439342498779297e-001</stageThreshold>
  <weakClassifiers>
    <_>
      <internalNodes>
        0 -1 6172 1146373120 -555987892 1935461584 1291619332 1073741888
        1172165652 0 0</internalNodes>
      <leafValues>
        -2.6801886558532715e+000 2.6801886558532715e+000</leafValues></_>
    <_>
      <internalNodes>
        0 -1 4002 -16385 -1 -21569 -21569 -1 -1 -20545 -20545</internalNodes>
      <leafValues>
        -7.7893680334091187e-001 7.7893680334091187e-001</leafValues></_>
    <_>
      <internalNodes>
        0 -1 2677 -1358954497 -285212673 -1 -268435457 -1 -1 -1 -1</internalNodes>
      <leafValues>
        -8.4627765417098999e-001 8.4627765417098999e-001</leafValues></_>
    <_>
      <internalNodes>
        0 -1 5296 -2 -2 -1 -2 -2 -1 -2 -16843014</internalNodes>
      <leafValues>
        -7.0904827117919922e-001 7.0904827117919922e-001</leafValues></_>
    <_>
      <internalNodes>
        0 -1 1147 -286327070 -16777217 -65538 -1 -140 -1 -1 -1</internalNodes>
      <leafValues>
        -6.7433279752731323e-001 6.7433279752731323e-001</leafValues></_>
    <_>
      <internalNodes>
        0 -1 6571 -1 -1 -1 -1 -1 -1 2147450879 2147483647</internalNodes>
      <leafValues>
        -6.5082997083663940e-001 6.5082997083663940e-001</leafValues></_>
    <_>
      <internalNodes>
        0 -1 7101 -129 -1 -1 -1 -137 2147483647 -129 -1</internalNodes>
      <leafValues>
        -6.6626691818237305e-001 6.6626691818237305e-001</leafValues></_>
    <_>
      <internalNodes>
        0 -1 452 -268439761 -268435457 -1 -1 -129 2147483647 -1 -1</internalNodes>
      <leafValues>
        -5.7478415966033936e-001 5.7478415966033936e-001</leafValues></_>
    <_>
      <internalNodes>
        0 -1 7200 1827733244 1291649023 -1 -1 -4 -1 -1 -1</internalNodes>
      <leafValues>
        -6.2300908565521240e-001 6.2300908565521240e-001</leafValues></_>
    <_>
      <internalNodes>
        0 -1 703 -16777490 -1 -16777474 -285212673 -129 -1 -134217729
        1996488703</internalNodes>
      <leafValues>
        -6.0171973705291748e-001 6.0171973705291748e-001</leafValues></_>
    <_>
      <internalNodes>
        0 -1 3829 -1090715652 -16842753 -1 -16842753 -3 -1 -3 -196611</internalNodes>
      <leafValues>
        -6.1078327894210815e-001 6.1078327894210815e-001</leafValues></_>
    <_>
      <internalNodes>
        0 -1 3750 -2 -1 -1 -1 -129 2147483647 -1 2147483647</internalNodes>
      <leafValues>
        -5.1740783452987671e-001 5.1740783452987671e-001</leafValues></_>
    <_>
      <internalNodes>
        0 -1 3513 -1 1073741823 -1 1073741823 -1 1073741823 -1
        1073741823</internalNodes>
      <leafValues>
        -5.9198105335235596e-001 5.9198105335235596e-001</leafValues></_>
    <_>
      <internalNodes>
        0 -1 719 -18 -1 -17 -1 -1 -1 -129 2147483647</internalNodes>
      <leafValues>
        -5.3072023391723633e-001 5.3072023391723633e-001</leafValues></_>
    <_>
      <internalNodes>
        0 -1 7626 -4126 788529150 -16 -16777217 -9 -1 2013230965
        1442316279</internalNodes>
      <leafValues>
        -5.3858321905136108e-001 5.3858321905136108e-001</leafValues></_>
    <_>
      <internalNodes>
        0 -1 5899 -4576 -1 -18 -1 -1 -1 2147483647 2013265919</internalNodes>
      <leafValues>
        -5.4011052846908569e-001 5.4011052846908569e-001</leafValues></_>
    <_>
      <internalNodes>
        0 -1 239 -269484050 787415022 -1 -286326785 -137 1744830463
        2147483511 125829119</internalNodes>
      <leafValues>
        -5.8285754919052124e-001 5.8285754919052124e-001</leafValues></_>
    <_>
      <internalNodes>
        0 -1 3019 -65552 -65538 -1 -1 -132 -1 -1 1610612735</internalNodes>
      <leafValues>
        -5.2695459127426147e-001 5.2695459127426147e-001</leafValues></_>
    <_>
      <internalNodes>
        0 -1 6450 -229520 -65537 -1 -65537 -11 -1 -3 -65539</internalNodes>
      <leafValues>
        -5.7058805227279663e-001 5.7058805227279663e-001</leafValues></_>
    <_>
      <internalNodes>
        0 -1 7507 -1073741889 -1073741825 -1 -1073741825 -1 -1 -1
        1073741823</internalNodes>
      <leafValues>
        -5.5027967691421509e-001 5.5027967691421509e-001</leafValues></_>
    <_>
      <internalNodes>
        0 -1 3074 -4 -65540 -260 -16842754 -12 -524300 -524 1416951412</internalNodes>
      <leafValues>
        -5.6665772199630737e-001 5.6665772199630737e-001</leafValues></_>
    <_>
      <internalNodes>
        0 -1 7165 -4 -1 -1 -1 -139 -1 -3 -1</internalNodes>
      <leafValues>
        -5.1921254396438599e-001 5.1921254396438599e-001</leafValues></_>
    <_>
      <internalNodes>
        0 -1 5294 -1342263380 -1 -1 -2 -2 -1 -2 -286330930</internalNodes>
      <leafValues>
        -4.9190446734428406e-001 4.9190446734428406e-001</leafValues></_>
    <_>
      <internalNodes>
        0 -1 3146 -2 -16777218 -1 -285212673 -140 -1 -137 1166016383</internalNodes>
      <leafValues>
        -4.7039696574211121e-001 4.7039696574211121e-001</leafValues></_>
    <_>
      <internalNodes>
        0 -1 17 -286265602 788463615 -2 -285278209 2147483647 1207959551
        2013265783 1207959551</internalNodes>
      <leafValues>
        -5.1471078395843506e-001 5.1471078395843506e-001</leafValues></_></weakClassifiers></stage10>
</opencv_storage>
