<?xml version="1.0"?>
<opencv_storage>
<stage12>
  <maxWeakCount>7</maxWeakCount>
  <stageThreshold>3.2612644135951996e-002</stageThreshold>
  <weakClassifiers>
    <_>
      <internalNodes>
        0 -1 3246 201327104 -1362329674 -1106984972 -1091248204
        805130180 -1077002244 -541839756 -1344000144</internalNodes>
      <leafValues>
        -3.6997318267822266e-001 1.7973221540451050e+000</leafValues></_>
    <_>
      <internalNodes>
        0 -1 6612 2078100159 1912602657 -1308573064 -939462520 35717327
        1912620162 573588143 1537738635</internalNodes>
      <leafValues>
        -1.2384225130081177e+000 8.6628669500350952e-001</leafValues></_>
    <_>
      <internalNodes>
        0 -1 3540 -716910208 -108543858 151126018 -922681328 1091879088
        -355958782 -1207204726 -1148580862</internalNodes>
      <leafValues>
        -1.4875541925430298e+000 7.2557377815246582e-001</leafValues></_>
    <_>
      <internalNodes>
        0 -1 25 1713368207 -858474019 -469631148 -469167808 264341923
        2146307 574656612 -443813665</internalNodes>
      <leafValues>
        -1.0200291872024536e+000 7.4383991956710815e-001</leafValues></_>
    <_>
      <internalNodes>
        0 -1 7544 1209520320 -2143268856 -1073708988 -1932334452
        856940928 1610776595 -1241464700 -767128949</internalNodes>
      <leafValues>
        -1.7783747911453247e+000 5.0216192007064819e-001</leafValues></_>
    <_>
      <internalNodes>
        0 -1 5851 1088770607 -2145943483 270127275 -1320558450
        -1070517338 8602092 -2057875200 -983347200</internalNodes>
      <leafValues>
        -1.1073516607284546e+000 6.5875577926635742e-001</leafValues></_>
    <_>
      <internalNodes>
        0 -1 11 -2121274097 -1599963004 1641257239 -2021490430 181132047
        71485442 17416707 1187489275</internalNodes>
      <leafValues>
        -9.8932296037673950e-001 7.1231502294540405e-001</leafValues></_></weakClassifiers></stage12>
</opencv_storage>
