<?xml version="1.0"?>
<opencv_storage>
<stage13>
  <maxWeakCount>8</maxWeakCount>
  <stageThreshold>2.4307113885879517e-001</stageThreshold>
  <weakClassifiers>
    <_>
      <internalNodes>
        0 -1 5722 536870912 45891412 1658879812 1022902012 502543684
        -1099579403 1007981636 1014775284</internalNodes>
      <leafValues>
        -5.7391303777694702e-001 1.7745894193649292e+000</leafValues></_>
    <_>
      <internalNodes>
        0 -1 2734 201905351 262165 538202129 36189697 805372417
        -1073741628 444858532 118186811</internalNodes>
      <leafValues>
        -3.1125719547271729e+000 7.7734124660491943e-001</leafValues></_>
    <_>
      <internalNodes>
        0 -1 599 1364194227 -1337269202 17502562 2277376 1744865635
        1614227729 -2141551870 -262669502</internalNodes>
      <leafValues>
        -9.5352214574813843e-001 8.4525996446609497e-001</leafValues></_>
    <_>
      <internalNodes>
        0 -1 6825 -52486144 1027672135 -838463160 1504478279 -2004916220
        1948270659 -1331008752 -129513162</internalNodes>
      <leafValues>
        -1.5640827417373657e+000 6.7988705635070801e-001</leafValues></_>
    <_>
      <internalNodes>
        0 -1 695 -914175990 1078481222 -2130115325 1275969665 -318252736
        49410 -1605723889 1330372651</internalNodes>
      <leafValues>
        -1.6118552684783936e+000 6.0668742656707764e-001</leafValues></_>
    <_>
      <internalNodes>
        0 -1 4972 273764739 1347665923 276918760 -247432892 2212171
        -2138898393 -1044324160 -239016508</internalNodes>
      <leafValues>
        -1.4141077995300293e+000 6.2448185682296753e-001</leafValues></_>
    <_>
      <internalNodes>
        0 -1 8095 -507002880 1074184546 -1056947196 96911508 1094729744
        65539 1078011850 -1515197437</internalNodes>
      <leafValues>
        -1.1122342348098755e+000 6.3366484642028809e-001</leafValues></_>
    <_>
      <internalNodes>
        0 -1 2599 1141657836 209747982 66011 692392008 -1673459712
        1077954560 -920146357 1326445107</internalNodes>
      <leafValues>
        -1.3446894884109497e+000 5.6245398521423340e-001</leafValues></_></weakClassifiers></stage13>
</opencv_storage>
