<?xml version="1.0"?>
<opencv_storage>
<stage14>
  <maxWeakCount>7</maxWeakCount>
  <stageThreshold>-3.0858239531517029e-001</stageThreshold>
  <weakClassifiers>
    <_>
      <internalNodes>
        0 -1 4141 1610653696 1959064676 1338375952 -587202570 -713591488
        -143130633 -526491 -1</internalNodes>
      <leafValues>
        -5.9420287609100342e-001 1.7844498157501221e+000</leafValues></_>
    <_>
      <internalNodes>
        0 -1 4910 16851332 1360142476 1343776 1679859916 1140978816
        -801882077 8422280 -142163576</internalNodes>
      <leafValues>
        -1.6046433448791504e+000 8.3828008174896240e-001</leafValues></_>
    <_>
      <internalNodes>
        0 -1 135 -878197401 132228 1225065306 -2131881311 170361167
        73873418 1163112963 78088347</internalNodes>
      <leafValues>
        -1.0833412408828735e+000 7.8942197561264038e-001</leafValues></_>
    <_>
      <internalNodes>
        0 -1 6229 1145622906 1074053459 -1852833791 302907913 1073763472
        -732134631 1096909184 -78581237</internalNodes>
      <leafValues>
        -1.3807903528213501e+000 6.4753687381744385e-001</leafValues></_>
    <_>
      <internalNodes>
        0 -1 1207 -1065180574 -1071246168 134882560 -528351232 285427520
        -463241046 -1304428224 -1297514480</internalNodes>
      <leafValues>
        -2.4514818191528320e+000 4.2761540412902832e-001</leafValues></_>
    <_>
      <internalNodes>
        0 -1 7102 -1643129776 1481314322 -1575875851 278118434 537034756
        1623197697 -1473672360 -1182095157</internalNodes>
      <leafValues>
        -1.2791188955307007e+000 6.1341875791549683e-001</leafValues></_>
    <_>
      <internalNodes>
        0 -1 1283 -939001241 -653016060 939558418 -800964598 -1064304384
        1612614144 -1719255040 -802831277</internalNodes>
      <leafValues>
        -1.0023254156112671e+000 6.9337564706802368e-001</leafValues></_></weakClassifiers></stage14>
</opencv_storage>
