<?xml version="1.0"?>
<opencv_storage>
<stage6>
  <maxWeakCount>6</maxWeakCount>
  <stageThreshold>3.7256804108619690e-001</stageThreshold>
  <weakClassifiers>
    <_>
      <internalNodes>
        0 -1 7234 1073790976 52352 -311369757 1376903163 1087495896
        -524297 -154927233 -579076097</internalNodes>
      <leafValues>
        -1.2455516308546066e-001 9.1386365890502930e-001</leafValues></_>
    <_>
      <internalNodes>
        0 -1 3990 -321 -1279542368 -269484033 464730663 -5 -4214854
        -5121 1068447535</internalNodes>
      <leafValues>
        -4.6457710862159729e-001 7.1718347072601318e-001</leafValues></_>
    <_>
      <internalNodes>
        0 -1 4806 -719859478 -783723446 -1845378356 -652656636
        -598549430 -2143059965 1082352162 -37363510</internalNodes>
      <leafValues>
        -6.1152547597885132e-001 5.2245527505874634e-001</leafValues></_>
    <_>
      <internalNodes>
        0 -1 7381 -202376406 -214438101 -270012813 -13111493 -1557782526
        -1154490333 -1574370757 -143660693</internalNodes>
      <leafValues>
        -5.1191312074661255e-001 6.5238857269287109e-001</leafValues></_>
    <_>
      <internalNodes>
        0 -1 4105 562627135 -1898970895 956305783 -46108436 1073780952
        -939523968 1477613759 -578752504</internalNodes>
      <leafValues>
        -5.9787052869796753e-001 4.7249072790145874e-001</leafValues></_>
    <_>
      <internalNodes>
        0 -1 811 -498348369 -895286718 -1073789693 1214971904 -960512886
        1130038434 -403198001 -1063081</internalNodes>
      <leafValues>
        -5.1374429464340210e-001 5.7422935962677002e-001</leafValues></_></weakClassifiers></stage6>
</opencv_storage>
