<?xml version="1.0"?>
<opencv_storage>
<stage6>
  <maxWeakCount>39</maxWeakCount>
  <stageThreshold>-3.7118428945541382e-001</stageThreshold>
  <weakClassifiers>
    <_>
      <internalNodes>
        0 -1 232 6.4756697975099087e-003</internalNodes>
      <leafValues>
        7.0452727377414703e-002 1.4078614711761475e+000</leafValues></_>
    <_>
      <internalNodes>
        0 -1 231 2.3762822151184082e-002</internalNodes>
      <leafValues>
        -3.9972871541976929e-001 2.8361737728118896e-001</leafValues></_>
    <_>
      <internalNodes>
        0 -1 138 1.9722878932952881e-002</internalNodes>
      <leafValues>
        -4.4780075550079346e-001 2.1567420661449432e-001</leafValues></_>
    <_>
      <internalNodes>
        0 -1 36 1.9615998491644859e-002</internalNodes>
      <leafValues>
        -5.0537163019180298e-001 2.0513121783733368e-001</leafValues></_>
    <_>
      <internalNodes>
        0 -1 128 1.0223804973065853e-002</internalNodes>
      <leafValues>
        -7.3720711469650269e-001 1.2034937739372253e-001</leafValues></_>
    <_>
      <internalNodes>
        0 -1 316 2.5024227797985077e-002</internalNodes>
      <leafValues>
        -3.3996158838272095e-001 2.5154733657836914e-001</leafValues></_>
    <_>
      <internalNodes>
        0 -1 273 1.4681298285722733e-002</internalNodes>
      <leafValues>
        -4.8306977748870850e-001 1.3705587387084961e-001</leafValues></_>
    <_>
      <internalNodes>
        0 -1 149 2.0290719345211983e-002</internalNodes>
      <leafValues>
        -2.9976311326026917e-001 2.0240667462348938e-001</leafValues></_>
    <_>
      <internalNodes>
        0 -1 204 3.8234725594520569e-002</internalNodes>
      <leafValues>
        -1.9858278334140778e-001 3.1678861379623413e-001</leafValues></_>
    <_>
      <internalNodes>
        0 -1 27 1.7350245267152786e-002</internalNodes>
      <leafValues>
        -4.7347605228424072e-001 1.2360592931509018e-001</leafValues></_>
    <_>
      <internalNodes>
        0 -1 223 1.7691008746623993e-002</internalNodes>
      <leafValues>
        2.0154674351215363e-001 -2.7717325091362000e-001</leafValues></_>
    <_>
      <internalNodes>
        0 -1 281 4.3386608362197876e-002</internalNodes>
      <leafValues>
        7.9693719744682312e-002 -7.4496591091156006e-001</leafValues></_>
    <_>
      <internalNodes>
        0 -1 315 2.3901849985122681e-002</internalNodes>
      <leafValues>
        -2.8643152117729187e-001 1.9170613586902618e-001</leafValues></_>
    <_>
      <internalNodes>
        0 -1 28 1.9553165882825851e-002</internalNodes>
      <leafValues>
        -3.3198639750480652e-001 1.3677431643009186e-001</leafValues></_>
    <_>
      <internalNodes>
        0 -1 148 1.8581204116344452e-002</internalNodes>
      <leafValues>
        -4.6306738257408142e-001 1.1667617410421371e-001</leafValues></_>
    <_>
      <internalNodes>
        0 -1 4 1.4237713068723679e-002</internalNodes>
      <leafValues>
        3.0650585889816284e-001 -2.0665705204010010e-001</leafValues></_>
    <_>
      <internalNodes>
        0 -1 241 2.2131834179162979e-002</internalNodes>
      <leafValues>
        -3.0489712953567505e-001 1.5495347976684570e-001</leafValues></_>
    <_>
      <internalNodes>
        0 -1 103 3.5242378711700439e-002</internalNodes>
      <leafValues>
        -1.7061893641948700e-001 2.9538476467132568e-001</leafValues></_>
    <_>
      <internalNodes>
        0 -1 79 1.2078134343028069e-002</internalNodes>
      <leafValues>
        -4.9503648281097412e-001 1.0678935050964355e-001</leafValues></_>
    <_>
      <internalNodes>
        0 -1 155 2.0569777116179466e-002</internalNodes>
      <leafValues>
        -2.5894227623939514e-001 1.7410384118556976e-001</leafValues></_>
    <_>
      <internalNodes>
        0 -1 1 3.6680780351161957e-002</internalNodes>
      <leafValues>
        -1.6154226660728455e-001 2.9797360301017761e-001</leafValues></_>
    <_>
      <internalNodes>
        0 -1 232 5.3081326186656952e-002</internalNodes>
      <leafValues>
        -1.0879004001617432e-001 3.9171776175498962e-001</leafValues></_>
    <_>
      <internalNodes>
        0 -1 157 3.3537343144416809e-002</internalNodes>
      <leafValues>
        -1.9450180232524872e-001 2.2930160164833069e-001</leafValues></_>
    <_>
      <internalNodes>
        0 -1 308 1.3350654393434525e-002</internalNodes>
      <leafValues>
        -3.9434966444969177e-001 1.2357698380947113e-001</leafValues></_>
    <_>
      <internalNodes>
        0 -1 200 3.2461572438478470e-002</internalNodes>
      <leafValues>
        9.7012132406234741e-002 -5.1465922594070435e-001</leafValues></_>
    <_>
      <internalNodes>
        0 -1 319 1.0505381971597672e-002</internalNodes>
      <leafValues>
        2.8477123379707336e-001 -1.4046189188957214e-001</leafValues></_>
    <_>
      <internalNodes>
        0 -1 140 1.2571338564157486e-002</internalNodes>
      <leafValues>
        -4.5444622635841370e-001 9.1588474810123444e-002</leafValues></_>
    <_>
      <internalNodes>
        0 -1 224 2.3137822747230530e-002</internalNodes>
      <leafValues>
        1.1847303807735443e-001 -2.9736655950546265e-001</leafValues></_>
    <_>
      <internalNodes>
        0 -1 229 1.9124936312437057e-002</internalNodes>
      <leafValues>
        2.1909265220165253e-001 -1.6889707744121552e-001</leafValues></_>
    <_>
      <internalNodes>
        0 -1 97 1.8011221662163734e-002</internalNodes>
      <leafValues>
        -3.0780982971191406e-001 1.2173576653003693e-001</leafValues></_>
    <_>
      <internalNodes>
        0 -1 149 7.9298485070466995e-003</internalNodes>
      <leafValues>
        -5.7426732778549194e-001 6.2328081578016281e-002</leafValues></_>
    <_>
      <internalNodes>
        0 -1 234 4.2762883007526398e-002</internalNodes>
      <leafValues>
        -1.0176273435354233e-001 3.9654693007469177e-001</leafValues></_>
    <_>
      <internalNodes>
        0 -1 154 9.6342545002698898e-003</internalNodes>
      <leafValues>
        -3.7690109014511108e-001 9.1273903846740723e-002</leafValues></_>
    <_>
      <internalNodes>
        0 -1 118 2.0900841802358627e-002</internalNodes>
      <leafValues>
        1.4132167398929596e-001 -2.6566913723945618e-001</leafValues></_>
    <_>
      <internalNodes>
        0 -1 147 2.9382195323705673e-002</internalNodes>
      <leafValues>
        -1.9542370736598969e-001 1.8627247214317322e-001</leafValues></_>
    <_>
      <internalNodes>
        0 -1 94 3.6913361400365829e-002</internalNodes>
      <leafValues>
        7.4511870741844177e-002 -4.6826630830764771e-001</leafValues></_>
    <_>
      <internalNodes>
        0 -1 309 3.6566238850355148e-002</internalNodes>
      <leafValues>
        -1.0560712963342667e-001 3.1517958641052246e-001</leafValues></_>
    <_>
      <internalNodes>
        0 -1 243 1.3353548943996429e-002</internalNodes>
      <leafValues>
        -3.7242871522903442e-001 9.5982208847999573e-002</leafValues></_>
    <_>
      <internalNodes>
        0 -1 172 4.3515063822269440e-002</internalNodes>
      <leafValues>
        8.0935187637805939e-002 -4.0815594792366028e-001</leafValues></_></weakClassifiers></stage6>
</opencv_storage>
