<?xml version="1.0"?>
<opencv_storage>
<stage12>
  <maxWeakCount>100</maxWeakCount>
  <stageThreshold>-3.3042109012603760e-001</stageThreshold>
  <weakClassifiers>
    <_>
      <internalNodes>
        0 -1 173 7.9788833856582642e-002</internalNodes>
      <leafValues>
        2.6358838081359863e+000 -2.6358838081359863e+000</leafValues></_>
    <_>
      <internalNodes>
        0 -1 0 4.0535397827625275e-002</internalNodes>
      <leafValues>
        -4.6952584385871887e-001 4.6952584385871887e-001</leafValues></_>
    <_>
      <internalNodes>
        0 -1 316 3.4335874021053314e-002</internalNodes>
      <leafValues>
        -3.8971465826034546e-001 3.8971465826034546e-001</leafValues></_>
    <_>
      <internalNodes>
        0 -1 232 2.0797025412321091e-002</internalNodes>
      <leafValues>
        -3.8482034206390381e-001 3.8482034206390381e-001</leafValues></_>
    <_>
      <internalNodes>
        0 -1 6 1.3908432796597481e-002</internalNodes>
      <leafValues>
        3.5418021678924561e-001 -3.5418021678924561e-001</leafValues></_>
    <_>
      <internalNodes>
        0 -1 156 3.9327919483184814e-002</internalNodes>
      <leafValues>
        -3.3943071961402893e-001 3.3943071961402893e-001</leafValues></_>
    <_>
      <internalNodes>
        0 -1 231 3.5392001271247864e-002</internalNodes>
      <leafValues>
        -3.2434073090553284e-001 3.2434073090553284e-001</leafValues></_>
    <_>
      <internalNodes>
        0 -1 17 8.4701795130968094e-003</internalNodes>
      <leafValues>
        2.9669976234436035e-001 -2.9669976234436035e-001</leafValues></_>
    <_>
      <internalNodes>
        0 -1 129 2.0418057218194008e-002</internalNodes>
      <leafValues>
        -3.4047690033912659e-001 3.4047690033912659e-001</leafValues></_>
    <_>
      <internalNodes>
        0 -1 204 5.7935487478971481e-002</internalNodes>
      <leafValues>
        -2.7007120847702026e-001 2.7007120847702026e-001</leafValues></_>
    <_>
      <internalNodes>
        0 -1 35 2.7073645964264870e-002</internalNodes>
      <leafValues>
        -3.2986432313919067e-001 3.2986432313919067e-001</leafValues></_>
    <_>
      <internalNodes>
        0 -1 104 2.4272724986076355e-002</internalNodes>
      <leafValues>
        -2.8727576136589050e-001 2.8727576136589050e-001</leafValues></_>
    <_>
      <internalNodes>
        0 -1 26 3.0699998140335083e-002</internalNodes>
      <leafValues>
        -3.2729607820510864e-001 3.2729607820510864e-001</leafValues></_>
    <_>
      <internalNodes>
        0 -1 148 4.0933042764663696e-002</internalNodes>
      <leafValues>
        -2.6650556921958923e-001 2.6650556921958923e-001</leafValues></_>
    <_>
      <internalNodes>
        0 -1 88 2.5146681815385818e-002</internalNodes>
      <leafValues>
        -2.7843680977821350e-001 2.7843680977821350e-001</leafValues></_>
    <_>
      <internalNodes>
        0 -1 182 2.4107061326503754e-002</internalNodes>
      <leafValues>
        -2.7826756238937378e-001 2.7826756238937378e-001</leafValues></_>
    <_>
      <internalNodes>
        0 -1 268 3.9447955787181854e-002</internalNodes>
      <leafValues>
        -2.9394581913948059e-001 2.9394581913948059e-001</leafValues></_>
    <_>
      <internalNodes>
        0 -1 235 2.7555637061595917e-002</internalNodes>
      <leafValues>
        -2.7444928884506226e-001 2.7444928884506226e-001</leafValues></_>
    <_>
      <internalNodes>
        0 -1 158 2.6002448052167892e-002</internalNodes>
      <leafValues>
        -2.5589686632156372e-001 2.5589686632156372e-001</leafValues></_>
    <_>
      <internalNodes>
        0 -1 155 2.0967233926057816e-002</internalNodes>
      <leafValues>
        -3.1717848777770996e-001 3.1717848777770996e-001</leafValues></_>
    <_>
      <internalNodes>
        0 -1 315 4.4956073164939880e-002</internalNodes>
      <leafValues>
        -2.7368712425231934e-001 2.7368712425231934e-001</leafValues></_>
    <_>
      <internalNodes>
        0 -1 308 1.2220019474625587e-002</internalNodes>
      <leafValues>
        -3.5488951206207275e-001 3.5488951206207275e-001</leafValues></_>
    <_>
      <internalNodes>
        0 -1 67 4.5641962438821793e-002</internalNodes>
      <leafValues>
        -3.0017733573913574e-001 3.0017733573913574e-001</leafValues></_>
    <_>
      <internalNodes>
        0 -1 96 3.1207244843244553e-002</internalNodes>
      <leafValues>
        -2.9374393820762634e-001 2.9374393820762634e-001</leafValues></_>
    <_>
      <internalNodes>
        0 -1 94 1.7634540796279907e-002</internalNodes>
      <leafValues>
        2.9009869694709778e-001 -2.9009869694709778e-001</leafValues></_>
    <_>
      <internalNodes>
        0 -1 251 3.6448828876018524e-002</internalNodes>
      <leafValues>
        -2.8510215878486633e-001 2.8510215878486633e-001</leafValues></_>
    <_>
      <internalNodes>
        0 -1 246 1.8162688240408897e-002</internalNodes>
      <leafValues>
        -3.1726685166358948e-001 3.1726685166358948e-001</leafValues></_>
    <_>
      <internalNodes>
        0 -1 288 4.1482366621494293e-002</internalNodes>
      <leafValues>
        -2.3845237493515015e-001 2.3845237493515015e-001</leafValues></_>
    <_>
      <internalNodes>
        0 -1 0 1.5790011733770370e-002</internalNodes>
      <leafValues>
        -3.8229599595069885e-001 3.8229599595069885e-001</leafValues></_>
    <_>
      <internalNodes>
        0 -1 195 3.4948255866765976e-002</internalNodes>
      <leafValues>
        -3.0419999361038208e-001 3.0419999361038208e-001</leafValues></_>
    <_>
      <internalNodes>
        0 -1 9 1.2033499777317047e-002</internalNodes>
      <leafValues>
        2.5383964180946350e-001 -2.5383964180946350e-001</leafValues></_>
    <_>
      <internalNodes>
        0 -1 309 2.4786634370684624e-002</internalNodes>
      <leafValues>
        -2.7435585856437683e-001 2.7435585856437683e-001</leafValues></_>
    <_>
      <internalNodes>
        0 -1 208 5.6065760552883148e-002</internalNodes>
      <leafValues>
        -2.2422175109386444e-001 2.2422175109386444e-001</leafValues></_>
    <_>
      <internalNodes>
        0 -1 150 1.3916339725255966e-002</internalNodes>
      <leafValues>
        -3.4357529878616333e-001 3.4357529878616333e-001</leafValues></_>
    <_>
      <internalNodes>
        0 -1 109 3.9324045181274414e-002</internalNodes>
      <leafValues>
        -2.3225075006484985e-001 2.3225075006484985e-001</leafValues></_>
    <_>
      <internalNodes>
        0 -1 156 1.7471063882112503e-002</internalNodes>
      <leafValues>
        -3.1497946381568909e-001 3.1497946381568909e-001</leafValues></_>
    <_>
      <internalNodes>
        0 -1 295 4.6401653438806534e-002</internalNodes>
      <leafValues>
        -2.1097370982170105e-001 2.1097370982170105e-001</leafValues></_>
    <_>
      <internalNodes>
        0 -1 147 3.0052937567234039e-002</internalNodes>
      <leafValues>
        -2.4733097851276398e-001 2.4733097851276398e-001</leafValues></_>
    <_>
      <internalNodes>
        0 -1 53 1.7120297998189926e-002</internalNodes>
      <leafValues>
        -2.6725012063980103e-001 2.6725012063980103e-001</leafValues></_>
    <_>
      <internalNodes>
        0 -1 269 4.8896156251430511e-002</internalNodes>
      <leafValues>
        -2.3207905888557434e-001 2.3207905888557434e-001</leafValues></_>
    <_>
      <internalNodes>
        0 -1 312 1.6169831156730652e-002</internalNodes>
      <leafValues>
        -2.9332962632179260e-001 2.9332962632179260e-001</leafValues></_>
    <_>
      <internalNodes>
        0 -1 131 3.0576799064874649e-002</internalNodes>
      <leafValues>
        -1.8542759120464325e-001 1.8542759120464325e-001</leafValues></_>
    <_>
      <internalNodes>
        0 -1 234 2.6193849742412567e-002</internalNodes>
      <leafValues>
        -2.3295754194259644e-001 2.3295754194259644e-001</leafValues></_>
    <_>
      <internalNodes>
        0 -1 123 4.3100494891405106e-002</internalNodes>
      <leafValues>
        -1.9587355852127075e-001 1.9587355852127075e-001</leafValues></_>
    <_>
      <internalNodes>
        0 -1 139 2.3180712014436722e-002</internalNodes>
      <leafValues>
        -3.0600544810295105e-001 3.0600544810295105e-001</leafValues></_>
    <_>
      <internalNodes>
        0 -1 297 3.6945112049579620e-002</internalNodes>
      <leafValues>
        -2.0422311127185822e-001 2.0422311127185822e-001</leafValues></_>
    <_>
      <internalNodes>
        0 -1 181 1.9887603819370270e-002</internalNodes>
      <leafValues>
        -2.6366361975669861e-001 2.6366361975669861e-001</leafValues></_>
    <_>
      <internalNodes>
        0 -1 61 4.0115833282470703e-002</internalNodes>
      <leafValues>
        -2.3164579272270203e-001 2.3164579272270203e-001</leafValues></_>
    <_>
      <internalNodes>
        0 -1 22 1.4382322318851948e-002</internalNodes>
      <leafValues>
        -2.7724084258079529e-001 2.7724084258079529e-001</leafValues></_>
    <_>
      <internalNodes>
        0 -1 33 4.7509036958217621e-002</internalNodes>
      <leafValues>
        -1.7997819185256958e-001 1.7997819185256958e-001</leafValues></_>
    <_>
      <internalNodes>
        0 -1 8 2.2814251482486725e-002</internalNodes>
      <leafValues>
        -3.1346786022186279e-001 3.1346786022186279e-001</leafValues></_>
    <_>
      <internalNodes>
        0 -1 101 3.2443396747112274e-002</internalNodes>
      <leafValues>
        -2.1467891335487366e-001 2.1467891335487366e-001</leafValues></_>
    <_>
      <internalNodes>
        0 -1 187 2.8398811817169189e-002</internalNodes>
      <leafValues>
        2.3077006638050079e-001 -2.3077006638050079e-001</leafValues></_>
    <_>
      <internalNodes>
        0 -1 34 3.1778201460838318e-002</internalNodes>
      <leafValues>
        -2.2339558601379395e-001 2.2339558601379395e-001</leafValues></_>
    <_>
      <internalNodes>
        0 -1 17 2.1533742547035217e-002</internalNodes>
      <leafValues>
        2.8549471497535706e-001 -2.8549471497535706e-001</leafValues></_>
    <_>
      <internalNodes>
        0 -1 218 5.6056391447782516e-002</internalNodes>
      <leafValues>
        -1.6439874470233917e-001 1.6439874470233917e-001</leafValues></_>
    <_>
      <internalNodes>
        0 -1 319 1.7039258033037186e-002</internalNodes>
      <leafValues>
        2.6046672463417053e-001 -2.6046672463417053e-001</leafValues></_>
    <_>
      <internalNodes>
        0 -1 36 3.6618035286664963e-002</internalNodes>
      <leafValues>
        -2.4902781844139099e-001 2.4902781844139099e-001</leafValues></_>
    <_>
      <internalNodes>
        0 -1 6 1.9929964095354080e-002</internalNodes>
      <leafValues>
        2.8193289041519165e-001 -2.8193289041519165e-001</leafValues></_>
    <_>
      <internalNodes>
        0 -1 232 5.3121007978916168e-002</internalNodes>
      <leafValues>
        -2.0668813586235046e-001 2.0668813586235046e-001</leafValues></_>
    <_>
      <internalNodes>
        0 -1 149 2.0589824765920639e-002</internalNodes>
      <leafValues>
        -2.5495958328247070e-001 2.5495958328247070e-001</leafValues></_>
    <_>
      <internalNodes>
        0 -1 122 3.2887600362300873e-002</internalNodes>
      <leafValues>
        -1.7097167670726776e-001 1.7097167670726776e-001</leafValues></_>
    <_>
      <internalNodes>
        0 -1 68 2.1415177732706070e-002</internalNodes>
      <leafValues>
        -2.4731297791004181e-001 2.4731297791004181e-001</leafValues></_>
    <_>
      <internalNodes>
        0 -1 205 2.6346597820520401e-002</internalNodes>
      <leafValues>
        -2.4154683947563171e-001 2.4154683947563171e-001</leafValues></_>
    <_>
      <internalNodes>
        0 -1 157 3.8922380656003952e-002</internalNodes>
      <leafValues>
        -1.8832643330097198e-001 1.8832643330097198e-001</leafValues></_>
    <_>
      <internalNodes>
        0 -1 315 2.6851959526538849e-002</internalNodes>
      <leafValues>
        -2.6723542809486389e-001 2.6723542809486389e-001</leafValues></_>
    <_>
      <internalNodes>
        0 -1 273 2.9942452907562256e-002</internalNodes>
      <leafValues>
        -2.3034954071044922e-001 2.3034954071044922e-001</leafValues></_>
    <_>
      <internalNodes>
        0 -1 28 2.9926091432571411e-002</internalNodes>
      <leafValues>
        -1.9463296234607697e-001 1.9463296234607697e-001</leafValues></_>
    <_>
      <internalNodes>
        0 -1 165 2.0477460697293282e-002</internalNodes>
      <leafValues>
        1.8702785670757294e-001 -1.8702785670757294e-001</leafValues></_>
    <_>
      <internalNodes>
        0 -1 45 1.3418834656476974e-002</internalNodes>
      <leafValues>
        -2.6272872090339661e-001 2.6272872090339661e-001</leafValues></_>
    <_>
      <internalNodes>
        0 -1 219 5.9898331761360168e-002</internalNodes>
      <leafValues>
        -1.7590266466140747e-001 1.7590266466140747e-001</leafValues></_>
    <_>
      <internalNodes>
        0 -1 24 2.4356883019208908e-002</internalNodes>
      <leafValues>
        -1.9249653816223145e-001 1.9249653816223145e-001</leafValues></_>
    <_>
      <internalNodes>
        0 -1 128 1.4482706785202026e-002</internalNodes>
      <leafValues>
        -2.7401888370513916e-001 2.7401888370513916e-001</leafValues></_>
    <_>
      <internalNodes>
        0 -1 89 6.4928784966468811e-002</internalNodes>
      <leafValues>
        -1.5735684335231781e-001 1.5735684335231781e-001</leafValues></_>
    <_>
      <internalNodes>
        0 -1 1 3.0563946813344955e-002</internalNodes>
      <leafValues>
        -2.3241491615772247e-001 2.3241491615772247e-001</leafValues></_>
    <_>
      <internalNodes>
        0 -1 26 5.1337454468011856e-002</internalNodes>
      <leafValues>
        -1.8783172965049744e-001 1.8783172965049744e-001</leafValues></_>
    <_>
      <internalNodes>
        0 -1 140 1.3229269534349442e-002</internalNodes>
      <leafValues>
        -2.9440990090370178e-001 2.9440990090370178e-001</leafValues></_>
    <_>
      <internalNodes>
        0 -1 155 5.0082825124263763e-002</internalNodes>
      <leafValues>
        -1.8471834063529968e-001 1.8471834063529968e-001</leafValues></_>
    <_>
      <internalNodes>
        0 -1 88 1.7606317996978760e-002</internalNodes>
      <leafValues>
        -2.5868529081344604e-001 2.5868529081344604e-001</leafValues></_>
    <_>
      <internalNodes>
        0 -1 147 5.3384579718112946e-002</internalNodes>
      <leafValues>
        -1.7614732682704926e-001 1.7614732682704926e-001</leafValues></_>
    <_>
      <internalNodes>
        0 -1 229 3.5323746502399445e-002</internalNodes>
      <leafValues>
        2.6132202148437500e-001 -2.6132202148437500e-001</leafValues></_>
    <_>
      <internalNodes>
        0 -1 87 5.9552341699600220e-002</internalNodes>
      <leafValues>
        -1.4659103751182556e-001 1.4659103751182556e-001</leafValues></_>
    <_>
      <internalNodes>
        0 -1 310 2.1460825577378273e-002</internalNodes>
      <leafValues>
        -2.5349694490432739e-001 2.5349694490432739e-001</leafValues></_>
    <_>
      <internalNodes>
        0 -1 81 5.4152317345142365e-002</internalNodes>
      <leafValues>
        -1.3523289561271667e-001 1.3523289561271667e-001</leafValues></_>
    <_>
      <internalNodes>
        0 -1 157 2.9377507045865059e-002</internalNodes>
      <leafValues>
        -2.1977400779724121e-001 2.1977400779724121e-001</leafValues></_>
    <_>
      <internalNodes>
        0 -1 202 2.4916272610425949e-002</internalNodes>
      <leafValues>
        1.9512258470058441e-001 -1.9512258470058441e-001</leafValues></_>
    <_>
      <internalNodes>
        0 -1 209 2.5061193853616714e-002</internalNodes>
      <leafValues>
        -1.9565497338771820e-001 1.9565497338771820e-001</leafValues></_>
    <_>
      <internalNodes>
        0 -1 281 2.1049875766038895e-002</internalNodes>
      <leafValues>
        1.9866986572742462e-001 -1.9866986572742462e-001</leafValues></_>
    <_>
      <internalNodes>
        0 -1 43 4.0747761726379395e-002</internalNodes>
      <leafValues>
        -1.2209172546863556e-001 1.2209172546863556e-001</leafValues></_>
    <_>
      <internalNodes>
        0 -1 35 1.6263663768768311e-002</internalNodes>
      <leafValues>
        -2.7798724174499512e-001 2.7798724174499512e-001</leafValues></_>
    <_>
      <internalNodes>
        0 -1 128 4.5900203287601471e-002</internalNodes>
      <leafValues>
        -1.9057707488536835e-001 1.9057707488536835e-001</leafValues></_>
    <_>
      <internalNodes>
        0 -1 245 2.2374633699655533e-002</internalNodes>
      <leafValues>
        -1.8484613299369812e-001 1.8484613299369812e-001</leafValues></_>
    <_>
      <internalNodes>
        0 -1 184 3.1595002859830856e-002</internalNodes>
      <leafValues>
        -1.8759132921695709e-001 1.8759132921695709e-001</leafValues></_>
    <_>
      <internalNodes>
        0 -1 231 2.6435181498527527e-002</internalNodes>
      <leafValues>
        -2.6073992252349854e-001 2.6073992252349854e-001</leafValues></_>
    <_>
      <internalNodes>
        0 -1 287 4.1955832391977310e-002</internalNodes>
      <leafValues>
        -1.8069347739219666e-001 1.8069347739219666e-001</leafValues></_>
    <_>
      <internalNodes>
        0 -1 138 2.3351177573204041e-002</internalNodes>
      <leafValues>
        -2.3022301495075226e-001 2.3022301495075226e-001</leafValues></_>
    <_>
      <internalNodes>
        0 -1 219 3.0175952240824699e-002</internalNodes>
      <leafValues>
        -1.6702827811241150e-001 1.6702827811241150e-001</leafValues></_>
    <_>
      <internalNodes>
        0 -1 3 1.8297929316759109e-002</internalNodes>
      <leafValues>
        2.1048833429813385e-001 -2.1048833429813385e-001</leafValues></_>
    <_>
      <internalNodes>
        0 -1 41 1.1627771891653538e-002</internalNodes>
      <leafValues>
        -2.3388844728469849e-001 2.3388844728469849e-001</leafValues></_>
    <_>
      <internalNodes>
        0 -1 0 6.9062843918800354e-002</internalNodes>
      <leafValues>
        -1.8416638672351837e-001 1.8416638672351837e-001</leafValues></_></weakClassifiers></stage12>
</opencv_storage>
